%YAML:1.0
my_svm: !!opencv-ml-svm
   svm_type: C_SVC
   kernel: { type:LINEAR }
   C: 2.6699999999999999e+00
   term_criteria: { epsilon:1.1920928955078125e-07, iterations:1000 }
   var_all: 80000
   var_count: 80000
   class_count: 2
   class_labels: !!opencv-matrix
      rows: 1
      cols: 2
      dt: i
      data: [ -1, 1 ]
   sv_total: 1
   support_vectors:
      - [ -2.38730240e-06, 1.50771865e-19, -7.31042883e-06,
          1.50771865e-19, -7.56559621e-06, 1.50771865e-19,
          -1.86495472e-05, 1.50771865e-19, -1.08975664e-05,
          1.50771865e-19, -2.84594239e-06, 1.50771865e-19,
          -2.90874186e-06, 1.50771865e-19, -8.16360807e-06,
          1.50771865e-19, -1.05243298e-05, 1.50771865e-19,
          -1.64232260e-05, 1.50771865e-19, -1.01956948e-05,
          1.50771865e-19, -1.28617094e-05, 1.50771865e-19,
          -1.33074964e-05, 1.50771865e-19, -7.66700123e-06,
          1.50771865e-19, -1.25383067e-05, 1.50771865e-19,
          -1.79519811e-05, 1.50771865e-19, -9.05439447e-06,
          1.50771865e-19, -6.40353755e-06, 1.50771865e-19,
          2.18309924e-06, 1.50771865e-19, 5.25255609e-06, 1.50771865e-19,
          2.09897166e-06, 1.50771865e-19, -3.17209515e-06,
          1.50771865e-19, -1.81167652e-05, 1.50771865e-19,
          -2.10231428e-05, 1.50771865e-19, -2.24151154e-05,
          1.50771865e-19, -3.05090543e-05, 1.50771865e-19,
          -2.83954942e-05, 1.50771865e-19, -2.63303991e-05,
          1.50771865e-19, -2.55500217e-05, 1.50771865e-19,
          -2.16981316e-05, 1.50771865e-19, -1.05958552e-05,
          1.50771865e-19, -1.28053455e-06, 1.50771865e-19,
          -5.37033793e-06, 1.50771865e-19, -1.46236598e-05,
          1.50771865e-19, 4.92096842e-06, 1.50771865e-19, 2.55228133e-06,
          1.50771865e-19, -2.15719933e-06, 1.50771865e-19,
          -8.05427499e-06, 1.50771865e-19, -1.17760019e-05,
          1.50771865e-19, -9.65142317e-06, 1.50771865e-19,
          -4.05063201e-06, 1.50771865e-19, -9.60273974e-06,
          1.50771865e-19, -1.14219820e-05, 1.50771865e-19,
          -6.47902334e-06, 1.50771865e-19, -1.32840123e-05,
          1.50771865e-19, -2.11622082e-05, 1.50771865e-19,
          -2.46999825e-05, 1.50771865e-19, -2.25379226e-05,
          1.50771865e-19, -1.56335191e-05, 1.50771865e-19,
          -2.74133181e-05, 1.50771865e-19, -2.20381626e-05,
          1.50771865e-19, -1.02510949e-05, 1.50771865e-19,
          -4.17581896e-06, 1.50771865e-19, 3.82692178e-07,
          1.50771865e-19, -9.03021100e-06, 1.50771865e-19,
          -3.74208025e-06, 1.50771865e-19, -1.43090926e-06,
          1.50771865e-19, -2.21321243e-05, 1.50771865e-19,
          -1.68799870e-05, 1.50771865e-19, -1.97958616e-05,
          1.50771865e-19, -1.86284797e-05, 1.50771865e-19,
          -4.38201141e-06, 1.50771865e-19, 1.15854175e-06,
          1.50771865e-19, 2.54813904e-06, 1.50771865e-19, 1.36462711e-06,
          1.50771865e-19, 4.92608115e-06, 1.50771865e-19, 7.65567711e-06,
          1.50771865e-19, 2.72601915e-06, 1.50771865e-19,
          -1.57653938e-06, 1.50771865e-19, -3.21160701e-06,
          1.50771865e-19, -7.45481157e-06, 1.50771865e-19,
          -2.83032432e-06, 1.50771865e-19, 4.47535467e-06,
          1.50771865e-19, -2.81160510e-06, 1.50771865e-19,
          6.02269847e-06, 1.50771865e-19, 5.55036149e-06, 1.50771865e-19,
          -2.71175986e-06, 1.50771865e-19, -6.53203142e-06,
          1.50771865e-19, -3.57430145e-06, 1.50771865e-19,
          -1.53813235e-05, 1.50771865e-19, 1.76618187e-07,
          1.50771865e-19, -7.63038497e-06, 1.50771865e-19,
          1.03743685e-06, 1.50771865e-19, -2.70118971e-06,
          1.50771865e-19, -7.07995196e-06, 1.50771865e-19,
          -6.88058947e-07, 1.50771865e-19, 8.89663443e-06,
          1.50771865e-19, -7.49096944e-06, 1.50771865e-19,
          -4.77405001e-06, 1.50771865e-19, 3.58645207e-06,
          1.50771865e-19, -6.60609601e-07, 1.50771865e-19,
          1.39880069e-06, 1.50771865e-19, 1.76775586e-06, 1.50771865e-19,
          -7.86948203e-06, 1.50771865e-19, 3.82207736e-06,
          1.50771865e-19, -4.49074491e-07, 1.50771865e-19,
          -1.07468823e-05, 1.50771865e-19, -7.48095454e-06,
          1.50771865e-19, -3.32231821e-07, 1.50771865e-19,
          8.60062926e-07, 1.50771865e-19, 2.00687305e-06, 1.50771865e-19,
          -3.67557482e-06, 1.50771865e-19, 1.69777049e-05,
          1.50771865e-19, 2.53285780e-05, 1.50771865e-19, 1.63133791e-05,
          1.50771865e-19, 8.18052467e-06, 1.50771865e-19, 2.24323594e-06,
          1.50771865e-19, -1.72845671e-06, 1.50771865e-19,
          -2.19873364e-05, 1.50771865e-19, -1.74434444e-05,
          1.50771865e-19, -2.00510767e-05, 1.50771865e-19,
          -1.56664410e-05, 1.50771865e-19, -1.31490033e-05,
          1.50771865e-19, -6.97200949e-06, 1.50771865e-19,
          -3.50828191e-06, 1.50771865e-19, -1.19951328e-05,
          1.50771865e-19, -1.25084835e-05, 1.50771865e-19,
          -4.60269530e-06, 1.50771865e-19, -4.71408794e-06,
          1.50771865e-19, -6.52183644e-06, 1.50771865e-19,
          -7.37153186e-06, 1.50771865e-19, -1.35476575e-05,
          1.50771865e-19, -1.78266018e-05, 1.50771865e-19,
          -2.59459666e-05, 1.50771865e-19, -1.18141425e-05,
          1.50771865e-19, 1.98346333e-06, 1.50771865e-19,
          -3.97686699e-06, 1.50771865e-19, -6.61754348e-06,
          1.50771865e-19, 6.06743106e-06, 1.50771865e-19, 1.76264202e-05,
          1.50771865e-19, 1.03558759e-05, 1.50771865e-19, 1.10822812e-05,
          1.50771865e-19, 1.64545017e-05, 1.50771865e-19, 1.27741523e-05,
          1.50771865e-19, 1.65404600e-07, 1.50771865e-19,
          -7.65807545e-06, 1.50771865e-19, -7.94439075e-06,
          1.50771865e-19, -5.96913378e-06, 1.50771865e-19,
          2.68152394e-06, 1.50771865e-19, 3.14478143e-06, 1.50771865e-19,
          -3.71507724e-07, 1.50771865e-19, -1.14307531e-05,
          1.50771865e-19, 1.04987549e-07, 1.50771865e-19, 5.07788945e-06,
          1.50771865e-19, 1.07267215e-05, 1.50771865e-19, 5.99255918e-06,
          1.50771865e-19, -4.09295762e-06, 1.50771865e-19,
          -6.68258872e-06, 1.50771865e-19, -2.45438673e-06,
          1.50771865e-19, -1.04782775e-05, 1.50771865e-19,
          -7.28451869e-06, 1.50771865e-19, 5.67157997e-07,
          1.50771865e-19, -2.87790635e-06, 1.50771865e-19,
          -1.36145923e-06, 1.50771865e-19, 8.46681269e-06,
          1.50771865e-19, 1.64555513e-05, 1.50771865e-19, 1.16280708e-05,
          1.50771865e-19, 2.88259844e-06, 1.50771865e-19, 4.89416652e-06,
          1.50771865e-19, 5.74335672e-06, 1.50771865e-19,
          -8.71738121e-06, 1.50771865e-19, -1.63521963e-05,
          1.50771865e-19, -2.58672389e-06, 1.50771865e-19,
          -8.11059908e-06, 1.50771865e-19, -9.15169267e-07,
          1.50771865e-19, -2.45735578e-06, 1.50771865e-19,
          1.29917350e-06, 1.50771865e-19, 4.48563424e-06, 1.50771865e-19,
          8.40300004e-07, 1.50771865e-19, -3.81472830e-07,
          1.50771865e-19, 8.14264513e-06, 1.50771865e-19,
          -1.65669803e-06, 1.50771865e-19, 2.78154789e-06,
          1.50771865e-19, 1.36183030e-06, 1.50771865e-19,
          -2.31630156e-06, 1.50771865e-19, -1.18860726e-06,
          1.50771865e-19, 1.56989336e-05, 1.50771865e-19, 2.65291274e-05,
          1.50771865e-19, 2.78502848e-05, 1.50771865e-19, 1.71603479e-05,
          1.50771865e-19, 1.60480995e-05, 1.50771865e-19, 1.75105524e-05,
          1.50771865e-19, 2.27647342e-05, 1.50771865e-19, 2.35250391e-05,
          1.50771865e-19, 1.55974503e-05, 1.50771865e-19, 1.67255021e-05,
          1.50771865e-19, 8.71276006e-06, 1.50771865e-19, 6.54753921e-06,
          1.50771865e-19, -3.92629727e-06, 1.50771865e-19,
          6.89292790e-07, 1.50771865e-19, 1.50164260e-05, 1.50771865e-19,
          1.77348120e-05, 1.50771865e-19, 1.51015820e-05, 1.50771865e-19,
          2.43891009e-05, 1.50771865e-19, 1.99232381e-05, 1.50771865e-19,
          1.93546530e-05, 1.50771865e-19, 2.18333316e-05, 1.50771865e-19,
          3.61440220e-06, 1.50771865e-19, 6.19959383e-06, 1.50771865e-19,
          8.02263366e-06, 1.50771865e-19, 4.79670553e-06, 1.50771865e-19,
          6.85265923e-06, 1.50771865e-19, -7.56825602e-06,
          1.50771865e-19, -6.59293119e-06, 1.50771865e-19,
          -4.96778739e-06, 1.50771865e-19, -7.95279175e-06,
          1.50771865e-19, -6.18052763e-06, 1.50771865e-19,
          -1.32178900e-06, 1.50771865e-19, 5.60312446e-06,
          1.50771865e-19, -5.61246907e-06, 1.50771865e-19,
          1.21820096e-06, 1.50771865e-19, -1.76499555e-06,
          1.50771865e-19, -6.44565489e-06, 1.50771865e-19,
          4.42505871e-06, 1.50771865e-19, -8.10716847e-06,
          1.50771865e-19, -5.70829297e-06, 1.50771865e-19,
          1.30888952e-06, 1.50771865e-19, 3.25039241e-06, 1.50771865e-19,
          1.30188719e-05, 1.50771865e-19, 1.25941215e-05, 1.50771865e-19,
          1.21351268e-05, 1.50771865e-19, -1.17153718e-07,
          1.50771865e-19, -1.09861994e-05, 1.50771865e-19,
          -1.76578105e-05, 1.50771865e-19, -2.81390894e-05,
          1.50771865e-19, -3.32376658e-05, 1.50771865e-19,
          -2.38022767e-05, 1.50771865e-19, -1.83053089e-05,
          1.50771865e-19, -1.53847541e-05, 1.50771865e-19,
          -1.22188621e-05, 1.50771865e-19, -2.75027855e-06,
          1.50771865e-19, 1.54741463e-06, 1.50771865e-19,
          -2.32377374e-06, 1.50771865e-19, -7.37598157e-06,
          1.50771865e-19, 1.04298879e-05, 1.50771865e-19, 9.58769215e-06,
          1.50771865e-19, 5.88834951e-07, 1.50771865e-19, 2.89528202e-06,
          1.50771865e-19, 1.47112530e-07, 1.50771865e-19,
          -9.36266042e-06, 1.50771865e-19, -4.47461935e-06,
          1.50771865e-19, 1.01216088e-07, 1.50771865e-19,
          -6.08362143e-06, 1.50771865e-19, -6.48163359e-06,
          1.50771865e-19, -1.08655113e-05, 1.50771865e-19,
          -9.27817564e-06, 1.50771865e-19, -1.57060804e-05,
          1.50771865e-19, -1.72238924e-05, 1.50771865e-19,
          -6.33475520e-06, 1.50771865e-19, -1.35737655e-05,
          1.50771865e-19, -7.52344522e-06, 1.50771865e-19,
          1.63349330e-06, 1.50771865e-19, 7.51653124e-06, 1.50771865e-19,
          8.41045130e-06, 1.50771865e-19, 2.90486787e-06, 1.50771865e-19,
          8.67634571e-06, 1.50771865e-19, -6.25943994e-06,
          1.50771865e-19, -1.85011177e-05, 1.50771865e-19,
          -1.33776348e-05, 1.50771865e-19, -9.93205776e-06,
          1.50771865e-19, -2.27336623e-05, 1.50771865e-19,
          -1.33233534e-05, 1.50771865e-19, -3.82188591e-06,
          1.50771865e-19, -3.84258192e-06, 1.50771865e-19,
          -1.63072389e-06, 1.50771865e-19, 1.44348917e-06,
          1.50771865e-19, 1.51463619e-05, 1.50771865e-19, 5.72600857e-06,
          1.50771865e-19, 5.41251347e-06, 1.50771865e-19,
          -1.56639533e-06, 1.50771865e-19, -2.35157927e-06,
          1.50771865e-19, 2.60273328e-06, 1.50771865e-19, 1.41382379e-05,
          1.50771865e-19, 5.81827453e-06, 1.50771865e-19, 7.59574505e-06,
          1.50771865e-19, 9.09670780e-06, 1.50771865e-19, 3.05182743e-06,
          1.50771865e-19, -2.00101181e-06, 1.50771865e-19,
          3.14738190e-06, 1.50771865e-19, -1.00608497e-06,
          1.50771865e-19, -1.55603038e-06, 1.50771865e-19,
          -6.28014323e-06, 1.50771865e-19, 2.01408056e-06,
          1.50771865e-19, -2.91700940e-06, 1.50771865e-19,
          6.10896052e-07, 1.50771865e-19, 3.61125763e-06, 1.50771865e-19,
          1.01391370e-05, 1.50771865e-19, -4.52487666e-06,
          1.50771865e-19, -7.39592224e-06, 1.50771865e-19,
          5.27479915e-06, 1.50771865e-19, 9.41407325e-06, 1.50771865e-19,
          6.19597449e-06, 1.50771865e-19, 4.03690365e-06, 1.50771865e-19,
          1.75382206e-06, 1.50771865e-19, 4.00983572e-06, 1.50771865e-19,
          -8.62594879e-06, 1.50771865e-19, -1.37849775e-05,
          1.50771865e-19, -1.26523519e-05, 1.50771865e-19,
          -3.98080920e-06, 1.50771865e-19, 1.17505115e-05,
          1.50771865e-19, 5.16254704e-06, 1.50771865e-19,
          -3.83181305e-06, 1.50771865e-19, 1.27509984e-05,
          1.50771865e-19, 2.39366273e-05, 1.50771865e-19, 1.22507372e-05,
          1.50771865e-19, 8.38048254e-06, 1.50771865e-19,
          -2.23556484e-07, 1.50771865e-19, -1.51072445e-05,
          1.50771865e-19, -2.73653004e-05, 1.50771865e-19,
          -2.14298816e-05, 1.50771865e-19, -2.45049323e-05,
          1.50771865e-19, -1.61804437e-05, 1.50771865e-19,
          -1.45203221e-05, 1.50771865e-19, -2.29437501e-06,
          1.50771865e-19, -3.44685668e-06, 1.50771865e-19,
          -5.48861635e-06, 1.50771865e-19, 1.96973770e-06,
          1.50771865e-19, 2.63480558e-07, 1.50771865e-19,
          -9.14216980e-06, 1.50771865e-19, -1.59073952e-05,
          1.50771865e-19, -1.82596177e-05, 1.50771865e-19,
          -1.55180733e-05, 1.50771865e-19, -1.37261932e-05,
          1.50771865e-19, -2.62270551e-05, 1.50771865e-19,
          -2.12475497e-05, 1.50771865e-19, -5.45846706e-06,
          1.50771865e-19, -5.47702894e-06, 1.50771865e-19,
          -1.06116238e-06, 1.50771865e-19, 2.56434646e-06,
          1.50771865e-19, 1.52397452e-05, 1.50771865e-19, 1.67394483e-05,
          1.50771865e-19, 1.08206114e-05, 1.50771865e-19, 9.35771732e-06,
          1.50771865e-19, 3.79627022e-06, 1.50771865e-19, 5.25622954e-06,
          1.50771865e-19, -5.71618921e-06, 1.50771865e-19,
          -1.19159022e-05, 1.50771865e-19, -1.18568860e-05,
          1.50771865e-19, -6.84691713e-06, 1.50771865e-19,
          -5.29246927e-06, 1.50771865e-19, -5.94504081e-06,
          1.50771865e-19, -7.61583851e-06, 1.50771865e-19,
          -2.74341323e-06, 1.50771865e-19, -1.06384300e-06,
          1.50771865e-19, 3.68159363e-06, 1.50771865e-19,
          -1.29993587e-05, 1.50771865e-19, -8.94640652e-06,
          1.50771865e-19, -5.73758552e-06, 1.50771865e-19,
          -5.98812767e-06, 1.50771865e-19, -7.46370097e-06,
          1.50771865e-19, -7.13321106e-06, 1.50771865e-19,
          -1.06572243e-05, 1.50771865e-19, -1.42048084e-05,
          1.50771865e-19, -9.67591677e-06, 1.50771865e-19,
          -1.48686786e-06, 1.50771865e-19, 5.90450327e-06,
          1.50771865e-19, 7.00509008e-06, 1.50771865e-19,
          -1.58831574e-06, 1.50771865e-19, 3.92501033e-06,
          1.50771865e-19, 6.00002795e-06, 1.50771865e-19,
          -1.58870098e-05, 1.50771865e-19, -1.49817306e-05,
          1.50771865e-19, -3.58386387e-06, 1.50771865e-19,
          -4.36241953e-06, 1.50771865e-19, -4.91765968e-06,
          1.50771865e-19, -1.10794927e-05, 1.50771865e-19,
          -1.17398404e-05, 1.50771865e-19, 1.27605006e-06,
          1.50771865e-19, -9.51494258e-06, 1.50771865e-19,
          -1.09910425e-05, 1.50771865e-19, -2.27130568e-06,
          1.50771865e-19, -4.69693077e-06, 1.50771865e-19,
          -2.20365655e-06, 1.50771865e-19, -1.24088556e-05,
          1.50771865e-19, -7.58226270e-06, 1.50771865e-19,
          1.60994068e-06, 1.50771865e-19, 7.37316725e-07, 1.50771865e-19,
          1.19402930e-05, 1.50771865e-19, 1.70434650e-05, 1.50771865e-19,
          1.25662455e-05, 1.50771865e-19, 1.13890992e-05, 1.50771865e-19,
          5.36418838e-06, 1.50771865e-19, 1.10347301e-05, 1.50771865e-19,
          1.10138526e-05, 1.50771865e-19, 1.09821158e-05, 1.50771865e-19,
          -8.69798214e-07, 1.50771865e-19, -4.67755717e-06,
          1.50771865e-19, -5.89313549e-06, 1.50771865e-19,
          -9.77831860e-06, 1.50771865e-19, -6.72852320e-06,
          1.50771865e-19, 4.22471385e-06, 1.50771865e-19, 1.00328707e-05,
          1.50771865e-19, 1.20478280e-05, 1.50771865e-19, 6.16907346e-06,
          1.50771865e-19, 4.13587350e-06, 1.50771865e-19, 7.68352675e-06,
          1.50771865e-19, 9.15353576e-06, 1.50771865e-19,
          -1.60249130e-07, 1.50771865e-19, -5.41979216e-06,
          1.50771865e-19, -8.42849659e-06, 1.50771865e-19,
          1.72547989e-05, 1.50771865e-19, -2.88276169e-06,
          1.50771865e-19, -1.30952012e-05, 1.50771865e-19,
          -2.26603561e-06, 1.50771865e-19, -3.86330476e-06,
          1.50771865e-19, -1.07678006e-05, 1.50771865e-19,
          -1.67451635e-05, 1.50771865e-19, -8.79209892e-06,
          1.50771865e-19, -5.56051191e-06, 1.50771865e-19,
          -6.37495214e-06, 1.50771865e-19, 9.19289107e-07,
          1.50771865e-19, -3.67015161e-07, 1.50771865e-19,
          3.62345418e-07, 1.50771865e-19, 1.64580376e-06, 1.50771865e-19,
          5.45618650e-06, 1.50771865e-19, -6.16007674e-06,
          1.50771865e-19, 6.15850468e-07, 1.50771865e-19, 6.55368240e-06,
          1.50771865e-19, 1.57037375e-05, 1.50771865e-19, 1.11983118e-05,
          1.50771865e-19, 6.85319083e-06, 1.50771865e-19, 3.91988442e-06,
          1.50771865e-19, -4.46713557e-06, 1.50771865e-19,
          -1.83557331e-05, 1.50771865e-19, -3.08837662e-05,
          1.50771865e-19, -2.80529930e-05, 1.50771865e-19,
          -3.25297369e-05, 1.50771865e-19, -2.42431142e-05,
          1.50771865e-19, -1.53717519e-05, 1.50771865e-19,
          -9.30338592e-06, 1.50771865e-19, -2.96692542e-06,
          1.50771865e-19, -1.76900596e-06, 1.50771865e-19,
          -1.23440623e-05, 1.50771865e-19, -4.46055901e-06,
          1.50771865e-19, 5.76720959e-06, 1.50771865e-19, 4.28863223e-06,
          1.50771865e-19, -1.16154986e-07, 1.50771865e-19,
          1.41252553e-06, 1.50771865e-19, 9.27836936e-06, 1.50771865e-19,
          1.42977319e-06, 1.50771865e-19, 1.30653088e-05, 1.50771865e-19,
          9.29204759e-07, 1.50771865e-19, -6.67092672e-06,
          1.50771865e-19, -3.50979917e-06, 1.50771865e-19,
          -5.22609207e-06, 1.50771865e-19, -2.94423262e-06,
          1.50771865e-19, -1.43189609e-05, 1.50771865e-19,
          -2.71332665e-05, 1.50771865e-19, -1.07660553e-05,
          1.50771865e-19, -7.89906790e-06, 1.50771865e-19,
          -7.26057897e-06, 1.50771865e-19, 2.77049594e-06,
          1.50771865e-19, 5.45529383e-06, 1.50771865e-19, 1.26496643e-05,
          1.50771865e-19, 4.02750675e-06, 1.50771865e-19, 7.97909524e-06,
          1.50771865e-19, -2.98322630e-06, 1.50771865e-19,
          -1.70019284e-05, 1.50771865e-19, -1.87276037e-05,
          1.50771865e-19, -1.35689806e-05, 1.50771865e-19,
          -8.96072925e-06, 1.50771865e-19, -8.47440879e-06,
          1.50771865e-19, -4.67091553e-07, 1.50771865e-19,
          -4.24029395e-06, 1.50771865e-19, -1.03875470e-06,
          1.50771865e-19, 3.55107477e-06, 1.50771865e-19, 2.11019142e-05,
          1.50771865e-19, 1.13646029e-05, 1.50771865e-19,
          -2.44748890e-06, 1.50771865e-19, -5.04940226e-06,
          1.50771865e-19, 2.54572774e-06, 1.50771865e-19, 3.52652023e-06,
          1.50771865e-19, 8.40964276e-07, 1.50771865e-19,
          -5.49485912e-06, 1.50771865e-19, -2.90811545e-06,
          1.50771865e-19, 6.11173618e-06, 1.50771865e-19, 1.14477725e-05,
          1.50771865e-19, 5.38809263e-06, 1.50771865e-19,
          -7.89981186e-06, 1.50771865e-19, -1.00796924e-05,
          1.50771865e-19, -1.08598160e-05, 1.50771865e-19,
          -1.38523346e-05, 1.50771865e-19, -3.44759951e-06,
          1.50771865e-19, -1.36791396e-05, 1.50771865e-19,
          -4.10792927e-06, 1.50771865e-19, -1.23339908e-06,
          1.50771865e-19, 6.00812291e-06, 1.50771865e-19,
          -2.08384577e-07, 1.50771865e-19, -5.88999637e-06,
          1.50771865e-19, 8.79683103e-06, 1.50771865e-19, 5.92725974e-06,
          1.50771865e-19, -3.31565116e-06, 1.50771865e-19,
          3.34050173e-06, 1.50771865e-19, 1.62773267e-05, 1.50771865e-19,
          6.66101778e-06, 1.50771865e-19, -1.50668420e-05,
          1.50771865e-19, -1.89558541e-05, 1.50771865e-19,
          -1.13764409e-05, 1.50771865e-19, -4.22280027e-06,
          1.50771865e-19, 1.39537569e-05, 1.50771865e-19, 1.10123610e-05,
          1.50771865e-19, 4.79870869e-06, 1.50771865e-19, 9.44381827e-06,
          1.50771865e-19, 8.14593386e-06, 1.50771865e-19, 7.65940149e-06,
          1.50771865e-19, -3.34291121e-06, 1.50771865e-19,
          -1.59253432e-05, 1.50771865e-19, -2.26426455e-05,
          1.50771865e-19, -2.55615796e-05, 1.50771865e-19,
          -2.40686368e-05, 1.50771865e-19, -2.91623146e-05,
          1.50771865e-19, -2.44484963e-05, 1.50771865e-19,
          -1.66069385e-05, 1.50771865e-19, -6.50462061e-06,
          1.50771865e-19, -5.91123990e-06, 1.50771865e-19,
          -1.10106421e-05, 1.50771865e-19, 1.91696586e-06,
          1.50771865e-19, -1.33312108e-06, 1.50771865e-19,
          -1.11569361e-05, 1.50771865e-19, -1.59354258e-05,
          1.50771865e-19, -2.37593613e-05, 1.50771865e-19,
          -2.23456336e-05, 1.50771865e-19, -2.86307240e-05,
          1.50771865e-19, -3.20940053e-05, 1.50771865e-19,
          -2.33491301e-05, 1.50771865e-19, -1.45641998e-05,
          1.50771865e-19, -7.11651774e-06, 1.50771865e-19,
          1.45904480e-07, 1.50771865e-19, -2.58408318e-06,
          1.50771865e-19, 1.21690136e-05, 1.50771865e-19, 1.59970896e-05,
          1.50771865e-19, 5.90769787e-06, 1.50771865e-19,
          -3.78046616e-06, 1.50771865e-19, -4.00445106e-06,
          1.50771865e-19, -1.62764661e-06, 1.50771865e-19,
          -6.80186986e-06, 1.50771865e-19, -1.12354246e-05,
          1.50771865e-19, -1.83430657e-05, 1.50771865e-19,
          -1.29976625e-05, 1.50771865e-19, -5.92660217e-06,
          1.50771865e-19, -4.17822048e-06, 1.50771865e-19,
          4.15067689e-06, 1.50771865e-19, -4.00793397e-06,
          1.50771865e-19, -7.14457974e-06, 1.50771865e-19,
          -8.19433444e-06, 1.50771865e-19, -2.19592712e-05,
          1.50771865e-19, -1.60197596e-05, 1.50771865e-19,
          -2.16939588e-05, 1.50771865e-19, -2.21883656e-05,
          1.50771865e-19, -5.91612252e-06, 1.50771865e-19,
          -1.30235076e-05, 1.50771865e-19, -1.16855090e-05,
          1.50771865e-19, -1.88255362e-05, 1.50771865e-19,
          -2.18089754e-05, 1.50771865e-19, -2.07260564e-05,
          1.50771865e-19, -1.08894037e-05, 1.50771865e-19,
          -3.34995525e-06, 1.50771865e-19, -6.29484566e-06,
          1.50771865e-19, 3.78806544e-06, 1.50771865e-19, 7.65137065e-06,
          1.50771865e-19, -1.24145427e-05, 1.50771865e-19,
          -1.98045418e-05, 1.50771865e-19, 1.14092074e-06,
          1.50771865e-19, -1.96923861e-06, 1.50771865e-19,
          -2.68150211e-06, 1.50771865e-19, -3.47117475e-06,
          1.50771865e-19, -1.44546516e-06, 1.50771865e-19,
          -5.44926297e-06, 1.50771865e-19, -1.69028390e-05,
          1.50771865e-19, -8.82357381e-06, 1.50771865e-19,
          -4.77766071e-06, 1.50771865e-19, -5.70406428e-06,
          1.50771865e-19, -3.88575472e-06, 1.50771865e-19,
          -1.01218766e-05, 1.50771865e-19, -8.01974693e-06,
          1.50771865e-19, 1.88963406e-06, 1.50771865e-19,
          -2.81297366e-06, 1.50771865e-19, 1.99309193e-06,
          1.50771865e-19, 3.29536829e-06, 1.50771865e-19,
          -3.57352792e-06, 1.50771865e-19, -1.97115060e-06,
          1.50771865e-19, -5.47080299e-06, 1.50771865e-19,
          1.04902358e-06, 1.50771865e-19, 4.95636277e-06, 1.50771865e-19,
          -1.16015713e-06, 1.50771865e-19, -1.54410300e-05,
          1.50771865e-19, -5.47553418e-06, 1.50771865e-19,
          -5.80604092e-06, 1.50771865e-19, -4.67476957e-06,
          1.50771865e-19, -6.91344076e-06, 1.50771865e-19,
          -3.30693479e-06, 1.50771865e-19, 1.03892617e-05,
          1.50771865e-19, 1.04626379e-05, 1.50771865e-19,
          -7.54501116e-07, 1.50771865e-19, -1.95266168e-07,
          1.50771865e-19, 1.01001197e-05, 1.50771865e-19, 9.16129466e-06,
          1.50771865e-19, 7.04655235e-07, 1.50771865e-19,
          -4.26859879e-06, 1.50771865e-19, -1.15679459e-05,
          1.50771865e-19, 2.10778799e-05, 1.50771865e-19,
          -1.63903485e-06, 1.50771865e-19, -6.53965753e-06,
          1.50771865e-19, 4.14230271e-06, 1.50771865e-19,
          -4.61141963e-06, 1.50771865e-19, -6.04018896e-06,
          1.50771865e-19, -1.30563449e-05, 1.50771865e-19,
          -1.28680604e-05, 1.50771865e-19, -2.73293517e-06,
          1.50771865e-19, -4.13446469e-06, 1.50771865e-19,
          -2.43993691e-06, 1.50771865e-19, 1.14598352e-05,
          1.50771865e-19, 5.22218579e-06, 1.50771865e-19, 4.57866054e-06,
          1.50771865e-19, 6.63323317e-06, 1.50771865e-19,
          -6.84665383e-06, 1.50771865e-19, -2.45392562e-06,
          1.50771865e-19, 8.07410561e-06, 1.50771865e-19, 1.37823790e-05,
          1.50771865e-19, 1.34303809e-05, 1.50771865e-19, 1.60020754e-05,
          1.50771865e-19, 1.15964740e-05, 1.50771865e-19, 1.61333594e-06,
          1.50771865e-19, -2.05689466e-05, 1.50771865e-19,
          -3.67898938e-05, 1.50771865e-19, -1.96307865e-05,
          1.50771865e-19, -2.81850753e-05, 1.50771865e-19,
          -1.47460496e-05, 1.50771865e-19, -2.10860776e-06,
          1.50771865e-19, 1.41556620e-06, 1.50771865e-19, 4.05597484e-06,
          1.50771865e-19, -4.20858532e-06, 1.50771865e-19,
          -8.05837954e-06, 1.50771865e-19, 8.52107496e-06,
          1.50771865e-19, 4.84079919e-06, 1.50771865e-19, 9.66429525e-06,
          1.50771865e-19, 2.27455057e-05, 1.50771865e-19, 1.73662047e-05,
          1.50771865e-19, 1.25124361e-05, 1.50771865e-19, 6.18274453e-06,
          1.50771865e-19, 2.45398533e-05, 1.50771865e-19, 5.59533692e-06,
          1.50771865e-19, 7.80125538e-06, 1.50771865e-19, 2.05193464e-06,
          1.50771865e-19, 2.52191444e-06, 1.50771865e-19, 9.66301627e-07,
          1.50771865e-19, -6.24481208e-06, 1.50771865e-19,
          -8.25913503e-06, 1.50771865e-19, -1.04575138e-05,
          1.50771865e-19, -1.68101633e-05, 1.50771865e-19,
          -5.45992179e-06, 1.50771865e-19, 4.13442103e-06,
          1.50771865e-19, 1.03436823e-05, 1.50771865e-19, 9.06148216e-06,
          1.50771865e-19, 1.16502797e-05, 1.50771865e-19, 8.08422647e-06,
          1.50771865e-19, -7.02711702e-07, 1.50771865e-19,
          -1.21227695e-05, 1.50771865e-19, -8.39080894e-06,
          1.50771865e-19, -8.26992846e-07, 1.50771865e-19,
          -9.07125832e-06, 1.50771865e-19, -8.79247818e-06,
          1.50771865e-19, -6.78786137e-06, 1.50771865e-19,
          -8.33754802e-06, 1.50771865e-19, 3.22940025e-07,
          1.50771865e-19, 1.67877733e-05, 1.50771865e-19, 2.80745244e-05,
          1.50771865e-19, 1.64678222e-05, 1.50771865e-19, 8.95510766e-06,
          1.50771865e-19, 4.30896989e-07, 1.50771865e-19, 1.49926439e-06,
          1.50771865e-19, -9.81358639e-08, 1.50771865e-19,
          -7.54454447e-07, 1.50771865e-19, -4.56853422e-06,
          1.50771865e-19, -9.48393608e-06, 1.50771865e-19,
          1.13019064e-06, 1.50771865e-19, 6.13128532e-06, 1.50771865e-19,
          8.48840227e-06, 1.50771865e-19, -1.19545064e-06,
          1.50771865e-19, 4.19463618e-07, 1.50771865e-19,
          -1.20242639e-05, 1.50771865e-19, -7.12099745e-06,
          1.50771865e-19, -6.60664637e-06, 1.50771865e-19,
          -7.05408956e-06, 1.50771865e-19, 4.22247740e-06,
          1.50771865e-19, 4.31005401e-06, 1.50771865e-19, 9.95907158e-06,
          1.50771865e-19, 5.56620353e-06, 1.50771865e-19, 1.61612274e-06,
          1.50771865e-19, 9.27544897e-06, 1.50771865e-19, 2.26561633e-06,
          1.50771865e-19, 2.37686618e-06, 1.50771865e-19, 1.06895804e-05,
          1.50771865e-19, 1.26823898e-05, 1.50771865e-19, 5.03435740e-06,
          1.50771865e-19, -6.52404105e-06, 1.50771865e-19,
          -1.40126913e-05, 1.50771865e-19, -1.07309888e-05,
          1.50771865e-19, -8.31956822e-06, 1.50771865e-19,
          1.23698680e-06, 1.50771865e-19, 9.65203071e-06, 1.50771865e-19,
          3.22865759e-07, 1.50771865e-19, 4.25303625e-07, 1.50771865e-19,
          5.02489183e-06, 1.50771865e-19, 8.01106125e-06, 1.50771865e-19,
          -3.01916543e-07, 1.50771865e-19, -9.24808319e-06,
          1.50771865e-19, -1.31922361e-05, 1.50771865e-19,
          -1.99083097e-05, 1.50771865e-19, -2.95589889e-05,
          1.50771865e-19, -2.72941761e-05, 1.50771865e-19,
          -2.17429297e-05, 1.50771865e-19, -4.40808390e-06,
          1.50771865e-19, 2.19977983e-06, 1.50771865e-19, 3.88883876e-07,
          1.50771865e-19, -1.13374126e-05, 1.50771865e-19,
          -3.89073830e-06, 1.50771865e-19, -6.50674428e-06,
          1.50771865e-19, -1.54617956e-05, 1.50771865e-19,
          -1.01370415e-05, 1.50771865e-19, -1.51507766e-05,
          1.50771865e-19, -1.68580227e-05, 1.50771865e-19,
          -2.79963842e-05, 1.50771865e-19, -3.00617940e-05,
          1.50771865e-19, -1.85000608e-05, 1.50771865e-19,
          -9.97562620e-06, 1.50771865e-19, -3.06391189e-06,
          1.50771865e-19, -4.57118585e-06, 1.50771865e-19,
          -2.60290949e-06, 1.50771865e-19, 1.17821810e-05,
          1.50771865e-19, 1.29571463e-05, 1.50771865e-19, 5.23731478e-06,
          1.50771865e-19, -7.58601254e-06, 1.50771865e-19,
          3.78109075e-06, 1.50771865e-19, -8.43199928e-07,
          1.50771865e-19, -6.79262803e-06, 1.50771865e-19,
          -1.14049471e-05, 1.50771865e-19, -1.52016446e-05,
          1.50771865e-19, -1.58344410e-05, 1.50771865e-19,
          -1.35087530e-05, 1.50771865e-19, -2.46466402e-06,
          1.50771865e-19, 6.11500764e-06, 1.50771865e-19,
          -3.44536534e-06, 1.50771865e-19, -8.77111233e-06,
          1.50771865e-19, -6.92702952e-06, 1.50771865e-19,
          -1.87986916e-05, 1.50771865e-19, -2.10705293e-05,
          1.50771865e-19, -1.73942735e-05, 1.50771865e-19,
          -2.72181496e-05, 1.50771865e-19, -2.40756035e-05,
          1.50771865e-19, -1.65148813e-05, 1.50771865e-19,
          -1.09956882e-05, 1.50771865e-19, -1.91836061e-05,
          1.50771865e-19, -2.40423324e-05, 1.50771865e-19,
          -2.20923721e-05, 1.50771865e-19, -1.41496812e-05,
          1.50771865e-19, -1.54484792e-06, 1.50771865e-19,
          -5.29259341e-06, 1.50771865e-19, 1.23123232e-06,
          1.50771865e-19, 4.64982531e-06, 1.50771865e-19,
          -3.36059679e-06, 1.50771865e-19, -3.40593397e-06,
          1.50771865e-19, -7.15209171e-06, 1.50771865e-19,
          -1.33494232e-05, 1.50771865e-19, -7.22528239e-06,
          1.50771865e-19, -1.60749266e-06, 1.50771865e-19,
          -5.08544917e-06, 1.50771865e-19, -6.43820749e-06,
          1.50771865e-19, -6.90960405e-06, 1.50771865e-19,
          -7.23302765e-06, 1.50771865e-19, -8.91289164e-06,
          1.50771865e-19, -1.25444521e-05, 1.50771865e-19,
          -1.45793856e-05, 1.50771865e-19, -4.46614877e-06,
          1.50771865e-19, -8.57654527e-07, 1.50771865e-19,
          1.51847348e-06, 1.50771865e-19, 3.50889241e-06, 1.50771865e-19,
          -2.60978072e-06, 1.50771865e-19, -1.21509356e-05,
          1.50771865e-19, -1.51186905e-05, 1.50771865e-19,
          -1.06115376e-05, 1.50771865e-19, -2.33823357e-06,
          1.50771865e-19, -4.33406740e-06, 1.50771865e-19,
          -3.33232924e-06, 1.50771865e-19, -1.87526155e-06,
          1.50771865e-19, -6.69297879e-06, 1.50771865e-19,
          -4.19074752e-07, 1.50771865e-19, -1.59509875e-06,
          1.50771865e-19, -6.03549461e-06, 1.50771865e-19,
          -3.96531323e-06, 1.50771865e-19, -7.73911992e-08,
          1.50771865e-19, 1.22893998e-05, 1.50771865e-19, 4.99514726e-06,
          1.50771865e-19, -3.37633566e-07, 1.50771865e-19,
          2.89522154e-06, 1.50771865e-19, -1.75073956e-06,
          1.50771865e-19, -2.68959440e-07, 1.50771865e-19,
          1.88506169e-06, 1.50771865e-19, -9.08367201e-06,
          1.50771865e-19, -1.31341903e-05, 1.50771865e-19,
          2.36507221e-05, 1.50771865e-19, 1.07531969e-05, 1.50771865e-19,
          -3.95977258e-06, 1.50771865e-19, 6.22948346e-06,
          1.50771865e-19, -4.65012761e-07, 1.50771865e-19,
          -8.14711075e-06, 1.50771865e-19, -1.33843723e-05,
          1.50771865e-19, -1.40733355e-05, 1.50771865e-19,
          -5.96895461e-06, 1.50771865e-19, -6.41163069e-06,
          1.50771865e-19, 4.91026917e-08, 1.50771865e-19, 1.37246161e-05,
          1.50771865e-19, 7.58423175e-06, 1.50771865e-19,
          -3.39786607e-06, 1.50771865e-19, 2.72204807e-06,
          1.50771865e-19, -1.98337693e-06, 1.50771865e-19,
          -3.37392544e-06, 1.50771865e-19, 3.24350776e-06,
          1.50771865e-19, 1.68927145e-05, 1.50771865e-19, 2.29534362e-05,
          1.50771865e-19, 1.27199237e-05, 1.50771865e-19, 2.88137903e-06,
          1.50771865e-19, -1.10372494e-05, 1.50771865e-19,
          -2.87332241e-05, 1.50771865e-19, -3.53889554e-05,
          1.50771865e-19, -1.34492921e-05, 1.50771865e-19,
          -1.47189567e-05, 1.50771865e-19, -9.32570310e-06,
          1.50771865e-19, 1.28188140e-06, 1.50771865e-19, 9.54756524e-06,
          1.50771865e-19, 3.73313969e-06, 1.50771865e-19,
          -1.66833661e-06, 1.50771865e-19, -6.94823621e-06,
          1.50771865e-19, 1.41847067e-05, 1.50771865e-19, 5.18382512e-06,
          1.50771865e-19, 7.83507130e-06, 1.50771865e-19, 2.14423762e-05,
          1.50771865e-19, 1.44551450e-05, 1.50771865e-19, 1.39336535e-05,
          1.50771865e-19, 9.01198564e-06, 1.50771865e-19, 1.87656315e-05,
          1.50771865e-19, 1.76415633e-05, 1.50771865e-19, 1.20017567e-05,
          1.50771865e-19, 1.73715634e-05, 1.50771865e-19, 1.19966171e-05,
          1.50771865e-19, 7.76066008e-06, 1.50771865e-19, 5.23432072e-06,
          1.50771865e-19, 5.45716966e-06, 1.50771865e-19,
          -6.89398848e-06, 1.50771865e-19, -6.57496003e-06,
          1.50771865e-19, 5.95294478e-06, 1.50771865e-19, 1.60705731e-05,
          1.50771865e-19, 1.35004138e-05, 1.50771865e-19, 8.38094456e-06,
          1.50771865e-19, 4.95926952e-06, 1.50771865e-19, 6.09309063e-06,
          1.50771865e-19, -8.52749690e-06, 1.50771865e-19,
          -6.76424679e-06, 1.50771865e-19, 7.05692946e-06,
          1.50771865e-19, 4.02630121e-06, 1.50771865e-19,
          -3.89283832e-06, 1.50771865e-19, -8.41821293e-06,
          1.50771865e-19, -1.07057258e-05, 1.50771865e-19,
          -3.85994281e-06, 1.50771865e-19, 3.76376579e-06,
          1.50771865e-19, 1.67669314e-05, 1.50771865e-19, 2.27659093e-05,
          1.50771865e-19, 1.28206575e-05, 1.50771865e-19, 1.11483314e-05,
          1.50771865e-19, 1.13295773e-05, 1.50771865e-19, 1.67286123e-06,
          1.50771865e-19, -2.23738084e-06, 1.50771865e-19,
          -7.19413720e-07, 1.50771865e-19, 9.76542651e-07,
          1.50771865e-19, -6.35704146e-06, 1.50771865e-19,
          4.58219984e-06, 1.50771865e-19, 1.02306285e-05, 1.50771865e-19,
          3.33464527e-06, 1.50771865e-19, 9.26268331e-06, 1.50771865e-19,
          7.25619202e-06, 1.50771865e-19, -2.60956904e-06,
          1.50771865e-19, -3.49967013e-06, 1.50771865e-19,
          -3.92050379e-06, 1.50771865e-19, -6.41330234e-06,
          1.50771865e-19, 8.76492265e-07, 1.50771865e-19,
          -8.94288235e-07, 1.50771865e-19, 1.12373527e-05,
          1.50771865e-19, 7.67855454e-06, 1.50771865e-19, 1.60874206e-05,
          1.50771865e-19, 6.48875221e-06, 1.50771865e-19,
          -9.40091638e-07, 1.50771865e-19, 5.32480590e-06,
          1.50771865e-19, 1.31938823e-05, 1.50771865e-19, 1.13202586e-05,
          1.50771865e-19, 2.21311410e-07, 1.50771865e-19,
          -1.07907026e-05, 1.50771865e-19, -1.19142087e-05,
          1.50771865e-19, -7.27370934e-06, 1.50771865e-19,
          -9.88833926e-06, 1.50771865e-19, -9.03517230e-06,
          1.50771865e-19, -1.22782387e-06, 1.50771865e-19,
          -1.83344957e-06, 1.50771865e-19, 1.54649413e-07,
          1.50771865e-19, 8.07188087e-07, 1.50771865e-19,
          -3.40845929e-07, 1.50771865e-19, 2.12564851e-06,
          1.50771865e-19, -5.45468902e-06, 1.50771865e-19,
          -1.26973064e-05, 1.50771865e-19, -2.01168023e-05,
          1.50771865e-19, -2.60814359e-05, 1.50771865e-19,
          -1.47568508e-05, 1.50771865e-19, -6.90902743e-06,
          1.50771865e-19, 5.61164507e-06, 1.50771865e-19, 1.20346449e-05,
          1.50771865e-19, -3.85432531e-06, 1.50771865e-19,
          -9.35874596e-06, 1.50771865e-19, -3.41016107e-06,
          1.50771865e-19, -1.16893953e-05, 1.50771865e-19,
          -1.22370375e-05, 1.50771865e-19, 4.97914425e-06,
          1.50771865e-19, 7.36864422e-07, 1.50771865e-19,
          -6.28079761e-06, 1.50771865e-19, -1.78208265e-05,
          1.50771865e-19, -1.81306568e-05, 1.50771865e-19,
          -1.43494035e-05, 1.50771865e-19, -8.10657730e-06,
          1.50771865e-19, -2.10534358e-06, 1.50771865e-19,
          -2.16713534e-06, 1.50771865e-19, -1.95588746e-06,
          1.50771865e-19, 1.06311118e-05, 1.50771865e-19, 1.35715527e-05,
          1.50771865e-19, 3.88073431e-06, 1.50771865e-19,
          -3.34526385e-06, 1.50771865e-19, 1.16394294e-05,
          1.50771865e-19, 6.03298940e-06, 1.50771865e-19,
          -5.05242633e-06, 1.50771865e-19, -9.70956262e-06,
          1.50771865e-19, -2.01492167e-05, 1.50771865e-19,
          -1.70348685e-05, 1.50771865e-19, -1.79025210e-05,
          1.50771865e-19, -9.78463686e-06, 1.50771865e-19,
          3.09595475e-06, 1.50771865e-19, -7.00323881e-07,
          1.50771865e-19, -8.57756186e-06, 1.50771865e-19,
          -6.36673803e-06, 1.50771865e-19, -2.82976162e-05,
          1.50771865e-19, -2.54641654e-05, 1.50771865e-19,
          -3.46775164e-06, 1.50771865e-19, -1.01474961e-05,
          1.50771865e-19, -1.81462219e-05, 1.50771865e-19,
          -1.23806540e-05, 1.50771865e-19, -1.68894094e-05,
          1.50771865e-19, -2.15782984e-05, 1.50771865e-19,
          -1.81329415e-05, 1.50771865e-19, -2.22121671e-05,
          1.50771865e-19, -9.28989630e-06, 1.50771865e-19,
          -2.89825351e-07, 1.50771865e-19, -7.71995292e-06,
          1.50771865e-19, -7.03323803e-06, 1.50771865e-19,
          -7.95327878e-07, 1.50771865e-19, 2.58668319e-06,
          1.50771865e-19, 2.59185117e-06, 1.50771865e-19,
          -1.10100086e-06, 1.50771865e-19, -9.63437833e-06,
          1.50771865e-19, -7.18880347e-06, 1.50771865e-19,
          -3.25604151e-06, 1.50771865e-19, -8.78631272e-06,
          1.50771865e-19, -1.35042592e-06, 1.50771865e-19,
          3.43815464e-06, 1.50771865e-19, -3.34823153e-06,
          1.50771865e-19, -6.18526701e-06, 1.50771865e-19,
          -1.31509996e-05, 1.50771865e-19, -1.18241742e-05,
          1.50771865e-19, -8.17917135e-06, 1.50771865e-19,
          -3.53379573e-06, 1.50771865e-19, -2.30900173e-06,
          1.50771865e-19, -2.73353771e-06, 1.50771865e-19,
          -6.41712086e-06, 1.50771865e-19, -8.69703945e-06,
          1.50771865e-19, -6.45559703e-06, 1.50771865e-19,
          -8.40611756e-06, 1.50771865e-19, -8.35758328e-07,
          1.50771865e-19, -1.03797893e-05, 1.50771865e-19,
          -1.16432520e-05, 1.50771865e-19, 3.65300389e-06,
          1.50771865e-19, 3.44204750e-06, 1.50771865e-19, 6.36846107e-06,
          1.50771865e-19, -2.72732973e-06, 1.50771865e-19,
          -1.04713845e-05, 1.50771865e-19, -5.00924307e-06,
          1.50771865e-19, 4.87869738e-06, 1.50771865e-19, 1.54544523e-05,
          1.50771865e-19, 1.37164625e-05, 1.50771865e-19, 8.05393302e-06,
          1.50771865e-19, 3.39810003e-06, 1.50771865e-19,
          -7.35358572e-06, 1.50771865e-19, -9.18086130e-07,
          1.50771865e-19, 1.19363728e-08, 1.50771865e-19,
          -1.61450025e-05, 1.50771865e-19, -1.58268431e-05,
          1.50771865e-19, 2.17260422e-05, 1.50771865e-19, 1.64556895e-05,
          1.50771865e-19, 7.71190025e-06, 1.50771865e-19, 1.38925361e-05,
          1.50771865e-19, 7.12032261e-06, 1.50771865e-19,
          -1.40864427e-06, 1.50771865e-19, -1.51604481e-05,
          1.50771865e-19, -5.31043361e-06, 1.50771865e-19,
          -7.74943419e-06, 1.50771865e-19, -1.23707241e-05,
          1.50771865e-19, -3.31368847e-06, 1.50771865e-19,
          1.31004444e-05, 1.50771865e-19, 1.03589236e-05, 1.50771865e-19,
          -1.77544564e-06, 1.50771865e-19, -4.58606064e-06,
          1.50771865e-19, -6.95143353e-06, 1.50771865e-19,
          -4.74814215e-06, 1.50771865e-19, 9.21307310e-06,
          1.50771865e-19, 1.98222424e-05, 1.50771865e-19, 1.65442561e-05,
          1.50771865e-19, 1.30109365e-05, 1.50771865e-19, 6.90955267e-06,
          1.50771865e-19, -1.55971447e-05, 1.50771865e-19,
          -1.46125112e-05, 1.50771865e-19, -2.19309331e-05,
          1.50771865e-19, -2.00254271e-05, 1.50771865e-19,
          -1.19259748e-05, 1.50771865e-19, -5.59772798e-06,
          1.50771865e-19, 2.94229926e-06, 1.50771865e-19, 1.58516923e-05,
          1.50771865e-19, 5.56187206e-06, 1.50771865e-19, 6.16187549e-07,
          1.50771865e-19, 1.47932963e-06, 1.50771865e-19, 6.60869318e-06,
          1.50771865e-19, 6.73635395e-06, 1.50771865e-19, 1.79455747e-05,
          1.50771865e-19, 2.69197590e-05, 1.50771865e-19, 1.93510805e-05,
          1.50771865e-19, 7.29492467e-06, 1.50771865e-19, 2.10266694e-06,
          1.50771865e-19, 1.48654563e-05, 1.50771865e-19, 1.33054009e-05,
          1.50771865e-19, 1.39200911e-05, 1.50771865e-19, 2.00610903e-05,
          1.50771865e-19, 1.98159087e-05, 1.50771865e-19, 7.14827365e-06,
          1.50771865e-19, 3.98214615e-06, 1.50771865e-19,
          -2.05268543e-06, 1.50771865e-19, -8.46519015e-06,
          1.50771865e-19, -7.07838217e-06, 1.50771865e-19,
          2.12504824e-06, 1.50771865e-19, 7.48003413e-06, 1.50771865e-19,
          6.04511388e-06, 1.50771865e-19, 1.54283116e-05, 1.50771865e-19,
          1.12738999e-05, 1.50771865e-19, 5.25566293e-06, 1.50771865e-19,
          -1.41192641e-06, 1.50771865e-19, 6.39479595e-07,
          1.50771865e-19, 3.17181889e-06, 1.50771865e-19, 8.19912839e-06,
          1.50771865e-19, 4.31029002e-06, 1.50771865e-19,
          -1.97497570e-06, 1.50771865e-19, 8.79927484e-07,
          1.50771865e-19, -1.81982830e-06, 1.50771865e-19,
          -3.53297014e-06, 1.50771865e-19, 5.46570209e-06,
          1.50771865e-19, 1.32215782e-05, 1.50771865e-19, 1.48025883e-05,
          1.50771865e-19, -2.84756015e-06, 1.50771865e-19,
          -2.73823139e-06, 1.50771865e-19, -5.08557605e-06,
          1.50771865e-19, -2.20831885e-06, 1.50771865e-19,
          -1.98714361e-06, 1.50771865e-19, 2.55600548e-06,
          1.50771865e-19, 3.10665662e-08, 1.50771865e-19, 5.86460237e-06,
          1.50771865e-19, 1.20762425e-05, 1.50771865e-19, 5.56339637e-06,
          1.50771865e-19, 4.50283096e-06, 1.50771865e-19,
          -2.58615955e-06, 1.50771865e-19, -6.93938682e-06,
          1.50771865e-19, -7.44613908e-06, 1.50771865e-19,
          -7.49164747e-06, 1.50771865e-19, -1.19989375e-06,
          1.50771865e-19, -3.93276832e-06, 1.50771865e-19,
          -3.45589751e-06, 1.50771865e-19, 7.48063667e-06,
          1.50771865e-19, 8.46516923e-06, 1.50771865e-19, 1.62796150e-05,
          1.50771865e-19, 1.09642415e-05, 1.50771865e-19, 1.05267691e-05,
          1.50771865e-19, 6.60734850e-06, 1.50771865e-19, 1.36263461e-05,
          1.50771865e-19, 1.24684448e-05, 1.50771865e-19,
          -4.55995450e-06, 1.50771865e-19, -1.70421099e-05,
          1.50771865e-19, -1.82043077e-05, 1.50771865e-19,
          -2.03512318e-05, 1.50771865e-19, -1.20433897e-05,
          1.50771865e-19, -6.50718903e-06, 1.50771865e-19,
          1.13641715e-06, 1.50771865e-19, -5.23725430e-06,
          1.50771865e-19, -5.73980378e-06, 1.50771865e-19,
          9.31681711e-07, 1.50771865e-19, -4.90741115e-07,
          1.50771865e-19, -7.55045448e-06, 1.50771865e-19,
          -1.23541640e-05, 1.50771865e-19, -1.32929172e-05,
          1.50771865e-19, -1.12205216e-05, 1.50771865e-19,
          -1.41442233e-05, 1.50771865e-19, -1.03804487e-05,
          1.50771865e-19, -2.34559388e-06, 1.50771865e-19,
          3.43851161e-06, 1.50771865e-19, 4.18749232e-06, 1.50771865e-19,
          -7.01946510e-06, 1.50771865e-19, 1.56704300e-06,
          1.50771865e-19, 9.88624561e-06, 1.50771865e-19,
          -4.21805316e-06, 1.50771865e-19, -7.78655067e-06,
          1.50771865e-19, 6.41752649e-06, 1.50771865e-19, 5.16419595e-06,
          1.50771865e-19, -1.02843114e-05, 1.50771865e-19,
          -2.00066988e-05, 1.50771865e-19, -1.43767393e-05,
          1.50771865e-19, -1.11704385e-05, 1.50771865e-19,
          -5.04796344e-06, 1.50771865e-19, -4.99269390e-06,
          1.50771865e-19, -2.59551939e-06, 1.50771865e-19,
          -6.93833181e-06, 1.50771865e-19, -2.97021961e-06,
          1.50771865e-19, 1.18172411e-05, 1.50771865e-19, 6.96540383e-06,
          1.50771865e-19, 1.25710869e-06, 1.50771865e-19, 8.01636907e-06,
          1.50771865e-19, 7.58612941e-06, 1.50771865e-19,
          -1.82710309e-07, 1.50771865e-19, -9.79740253e-06,
          1.50771865e-19, -2.42407023e-05, 1.50771865e-19,
          -1.94139357e-05, 1.50771865e-19, -1.04528963e-05,
          1.50771865e-19, -7.11457642e-06, 1.50771865e-19,
          2.90862772e-06, 1.50771865e-19, -1.71565659e-06,
          1.50771865e-19, -2.99236990e-06, 1.50771865e-19,
          -3.38574227e-06, 1.50771865e-19, -2.13560070e-05,
          1.50771865e-19, -1.80300740e-05, 1.50771865e-19,
          -1.91520053e-06, 1.50771865e-19, -1.09656094e-05,
          1.50771865e-19, -1.36605959e-05, 1.50771865e-19,
          -7.18896217e-06, 1.50771865e-19, -6.78802371e-06,
          1.50771865e-19, -1.17762311e-05, 1.50771865e-19,
          -1.42327572e-05, 1.50771865e-19, -2.63038164e-05,
          1.50771865e-19, -1.13289170e-05, 1.50771865e-19,
          -7.27646420e-06, 1.50771865e-19, -1.99660335e-05,
          1.50771865e-19, -1.78484570e-05, 1.50771865e-19,
          -7.95638698e-06, 1.50771865e-19, 6.19530311e-08,
          1.50771865e-19, -2.68268650e-06, 1.50771865e-19,
          2.53262328e-06, 1.50771865e-19, 6.09997096e-06, 1.50771865e-19,
          4.01018360e-06, 1.50771865e-19, 4.30813179e-06, 1.50771865e-19,
          -1.78187906e-06, 1.50771865e-19, 1.27314797e-06,
          1.50771865e-19, -1.55165003e-06, 1.50771865e-19,
          -2.47939738e-07, 1.50771865e-19, 2.63770357e-06,
          1.50771865e-19, -8.53582060e-06, 1.50771865e-19,
          1.54472764e-06, 1.50771865e-19, -6.55623353e-06,
          1.50771865e-19, -3.49111428e-06, 1.50771865e-19,
          -1.71497481e-06, 1.50771865e-19, -8.32930982e-06,
          1.50771865e-19, -8.20524838e-06, 1.50771865e-19,
          -4.09764056e-07, 1.50771865e-19, -4.87520708e-07,
          1.50771865e-19, -2.17545357e-06, 1.50771865e-19,
          -1.05465836e-06, 1.50771865e-19, -9.30732040e-06,
          1.50771865e-19, -8.95251924e-06, 1.50771865e-19,
          -3.61305212e-07, 1.50771865e-19, 1.01329499e-06,
          1.50771865e-19, 4.98628253e-07, 1.50771865e-19,
          -1.13869328e-05, 1.50771865e-19, -1.17085319e-05,
          1.50771865e-19, -3.37514643e-06, 1.50771865e-19,
          5.72786894e-06, 1.50771865e-19, 1.03249413e-05, 1.50771865e-19,
          2.34980234e-05, 1.50771865e-19, 1.62939923e-05, 1.50771865e-19,
          1.32647665e-06, 1.50771865e-19, -7.21334209e-06,
          1.50771865e-19, -7.73501938e-08, 1.50771865e-19,
          -5.70994598e-06, 1.50771865e-19, -1.63300501e-05,
          1.50771865e-19, -1.45896320e-05, 1.50771865e-19,
          1.20500381e-05, 1.50771865e-19, 5.38781251e-06, 1.50771865e-19,
          1.15507646e-05, 1.50771865e-19, 1.70380481e-05, 1.50771865e-19,
          6.05532932e-07, 1.50771865e-19, -8.94362586e-07,
          1.50771865e-19, -7.31415730e-06, 1.50771865e-19,
          -4.23949132e-06, 1.50771865e-19, -8.67653216e-06,
          1.50771865e-19, -8.10578331e-06, 1.50771865e-19,
          -4.22667517e-06, 1.50771865e-19, 5.24428970e-06,
          1.50771865e-19, 4.58110253e-06, 1.50771865e-19,
          -1.76426374e-06, 1.50771865e-19, -2.76995866e-06,
          1.50771865e-19, -4.49355366e-06, 1.50771865e-19,
          -5.60557623e-07, 1.50771865e-19, 1.15783887e-05,
          1.50771865e-19, 1.96437031e-05, 1.50771865e-19, 1.31092465e-05,
          1.50771865e-19, 1.04108012e-05, 1.50771865e-19, 5.78642084e-06,
          1.50771865e-19, -5.00008582e-06, 1.50771865e-19,
          -3.31551973e-06, 1.50771865e-19, -1.55454545e-05,
          1.50771865e-19, -2.63056063e-05, 1.50771865e-19,
          -8.18207627e-06, 1.50771865e-19, 4.48918217e-06,
          1.50771865e-19, 1.33906524e-05, 1.50771865e-19, 1.66025638e-05,
          1.50771865e-19, -6.54459953e-08, 1.50771865e-19,
          -7.89960632e-06, 1.50771865e-19, 1.11322186e-06,
          1.50771865e-19, 3.78874688e-06, 1.50771865e-19, 6.09907420e-06,
          1.50771865e-19, 1.82782151e-05, 1.50771865e-19, 2.68568165e-05,
          1.50771865e-19, 1.86416000e-05, 1.50771865e-19, 9.18530168e-06,
          1.50771865e-19, 8.40316625e-06, 1.50771865e-19, 5.60174203e-06,
          1.50771865e-19, 3.89653633e-06, 1.50771865e-19, 9.36697234e-06,
          1.50771865e-19, 2.47924618e-05, 1.50771865e-19, 2.31078939e-05,
          1.50771865e-19, 1.00031411e-05, 1.50771865e-19, 1.37322177e-05,
          1.50771865e-19, 4.22999392e-06, 1.50771865e-19,
          -6.51625942e-06, 1.50771865e-19, -1.89301147e-06,
          1.50771865e-19, -4.05138053e-07, 1.50771865e-19,
          9.24172491e-06, 1.50771865e-19, 1.37633870e-05, 1.50771865e-19,
          2.20566872e-05, 1.50771865e-19, 2.92923633e-05, 1.50771865e-19,
          1.86508751e-05, 1.50771865e-19, 1.21604589e-05, 1.50771865e-19,
          2.66718075e-06, 1.50771865e-19, 8.30495810e-06, 1.50771865e-19,
          1.68481256e-05, 1.50771865e-19, 3.31642127e-06, 1.50771865e-19,
          7.92224910e-06, 1.50771865e-19, -3.00701049e-06,
          1.50771865e-19, -8.24950075e-06, 1.50771865e-19,
          -5.47218860e-06, 1.50771865e-19, -3.38339896e-06,
          1.50771865e-19, 3.99685632e-06, 1.50771865e-19, 2.84415410e-06,
          1.50771865e-19, -6.39083919e-06, 1.50771865e-19,
          -1.23132895e-05, 1.50771865e-19, -8.96296478e-06,
          1.50771865e-19, -2.02523483e-06, 1.50771865e-19,
          -6.29717943e-06, 1.50771865e-19, -3.28155352e-06,
          1.50771865e-19, 4.41471593e-06, 1.50771865e-19, 1.60767249e-05,
          1.50771865e-19, 8.11914379e-06, 1.50771865e-19, 5.83500059e-06,
          1.50771865e-19, 1.30816102e-06, 1.50771865e-19, 5.45946386e-06,
          1.50771865e-19, -3.65974461e-06, 1.50771865e-19,
          -1.04029568e-05, 1.50771865e-19, -1.03290149e-05,
          1.50771865e-19, -2.65181188e-06, 1.50771865e-19,
          2.73553337e-06, 1.50771865e-19, 8.04860247e-06, 1.50771865e-19,
          8.09565790e-06, 1.50771865e-19, 1.65292586e-05, 1.50771865e-19,
          2.04886001e-05, 1.50771865e-19, 2.11074894e-05, 1.50771865e-19,
          1.36785702e-05, 1.50771865e-19, 7.38467224e-06, 1.50771865e-19,
          1.70109215e-05, 1.50771865e-19, 3.35396203e-06, 1.50771865e-19,
          -8.72410874e-06, 1.50771865e-19, -1.32406021e-05,
          1.50771865e-19, -2.34538784e-05, 1.50771865e-19,
          -2.13187977e-05, 1.50771865e-19, -6.74364946e-06,
          1.50771865e-19, -7.83822452e-06, 1.50771865e-19,
          -5.81212953e-06, 1.50771865e-19, -4.41303882e-06,
          1.50771865e-19, 1.28695206e-06, 1.50771865e-19,
          -2.84576754e-06, 1.50771865e-19, -5.59641376e-06,
          1.50771865e-19, -9.90825083e-06, 1.50771865e-19,
          -1.62789456e-05, 1.50771865e-19, -1.05061963e-05,
          1.50771865e-19, -1.43633306e-05, 1.50771865e-19,
          -1.49683947e-05, 1.50771865e-19, 9.15320413e-07,
          1.50771865e-19, 6.25176381e-06, 1.50771865e-19, 1.53327819e-05,
          1.50771865e-19, 3.37330653e-06, 1.50771865e-19,
          -2.85665215e-06, 1.50771865e-19, 1.12090192e-05,
          1.50771865e-19, 4.98240797e-06, 1.50771865e-19,
          -6.19846105e-07, 1.50771865e-19, 2.92227082e-06,
          1.50771865e-19, 7.76794786e-06, 1.50771865e-19, 2.28019530e-06,
          1.50771865e-19, -8.25567383e-07, 1.50771865e-19,
          -1.46613293e-05, 1.50771865e-19, -7.97740813e-06,
          1.50771865e-19, -5.80937967e-06, 1.50771865e-19,
          1.35756606e-08, 1.50771865e-19, -1.34821914e-06,
          1.50771865e-19, 4.95949052e-07, 1.50771865e-19,
          -4.50351172e-06, 1.50771865e-19, 2.17017237e-06,
          1.50771865e-19, 1.51623544e-05, 1.50771865e-19, 3.06008883e-06,
          1.50771865e-19, 8.60116529e-07, 1.50771865e-19, 1.53485189e-06,
          1.50771865e-19, 1.58968746e-07, 1.50771865e-19,
          -3.11888334e-06, 1.50771865e-19, -8.74998022e-06,
          1.50771865e-19, -1.90534447e-05, 1.50771865e-19,
          -1.13736041e-05, 1.50771865e-19, -1.09578502e-06,
          1.50771865e-19, 7.19090758e-06, 1.50771865e-19, 4.30502178e-06,
          1.50771865e-19, -7.75210174e-06, 1.50771865e-19,
          -8.31565194e-06, 1.50771865e-19, -1.34920701e-05,
          1.50771865e-19, -2.05480228e-05, 1.50771865e-19,
          -1.60226664e-05, 1.50771865e-19, -5.98917222e-06,
          1.50771865e-19, -1.66683494e-05, 1.50771865e-19,
          -2.54135084e-05, 1.50771865e-19, -1.46606362e-05,
          1.50771865e-19, -4.72054035e-06, 1.50771865e-19,
          -7.64184551e-06, 1.50771865e-19, -1.43437892e-05,
          1.50771865e-19, -2.16318804e-05, 1.50771865e-19,
          -9.00720897e-06, 1.50771865e-19, -9.39952497e-06,
          1.50771865e-19, -2.07568137e-05, 1.50771865e-19,
          -2.37905406e-05, 1.50771865e-19, -1.26390387e-05,
          1.50771865e-19, -4.05823329e-07, 1.50771865e-19,
          2.13139387e-07, 1.50771865e-19, 6.01071122e-07, 1.50771865e-19,
          5.12457018e-06, 1.50771865e-19, 3.18639422e-06, 1.50771865e-19,
          -2.38474786e-06, 1.50771865e-19, 7.61201136e-07,
          1.50771865e-19, 4.81005281e-06, 1.50771865e-19,
          -1.03500270e-05, 1.50771865e-19, 3.13773035e-06,
          1.50771865e-19, 8.41121891e-06, 1.50771865e-19,
          -2.38255552e-06, 1.50771865e-19, 6.85421924e-07,
          1.50771865e-19, -5.25482119e-06, 1.50771865e-19,
          -1.76487283e-05, 1.50771865e-19, -1.40180282e-05,
          1.50771865e-19, -1.10122855e-05, 1.50771865e-19,
          -9.10335893e-06, 1.50771865e-19, 3.17858053e-06,
          1.50771865e-19, 4.84254451e-06, 1.50771865e-19, 5.00843362e-06,
          1.50771865e-19, -2.84832754e-06, 1.50771865e-19,
          -1.09041548e-05, 1.50771865e-19, -7.47217382e-06,
          1.50771865e-19, -9.77330546e-06, 1.50771865e-19,
          -1.97734107e-06, 1.50771865e-19, -7.56250483e-06,
          1.50771865e-19, -1.15384864e-05, 1.50771865e-19,
          -4.73163936e-06, 1.50771865e-19, -6.75935723e-07,
          1.50771865e-19, 4.45182877e-06, 1.50771865e-19, 1.30829667e-05,
          1.50771865e-19, 1.84065793e-05, 1.50771865e-19, 1.94502900e-05,
          1.50771865e-19, 1.11634581e-05, 1.50771865e-19, 7.87116915e-06,
          1.50771865e-19, 5.40466272e-06, 1.50771865e-19, 1.27040960e-06,
          1.50771865e-19, -1.33176100e-05, 1.50771865e-19,
          -1.17592499e-05, 1.50771865e-19, 6.00894964e-06,
          1.50771865e-19, 2.40752183e-06, 1.50771865e-19, 6.58351019e-06,
          1.50771865e-19, 1.30603448e-05, 1.50771865e-19, 5.84257350e-06,
          1.50771865e-19, -9.51626646e-07, 1.50771865e-19,
          -1.32896810e-06, 1.50771865e-19, -5.64907805e-06,
          1.50771865e-19, -7.22028290e-06, 1.50771865e-19,
          -6.35464676e-06, 1.50771865e-19, -4.49409890e-06,
          1.50771865e-19, -3.54805110e-08, 1.50771865e-19,
          -9.26865141e-06, 1.50771865e-19, -2.46894729e-06,
          1.50771865e-19, 2.39685596e-06, 1.50771865e-19,
          -8.33197646e-06, 1.50771865e-19, 1.29448176e-06,
          1.50771865e-19, 1.51331969e-05, 1.50771865e-19, 2.14678676e-05,
          1.50771865e-19, 1.28516613e-05, 1.50771865e-19, 2.90547246e-06,
          1.50771865e-19, 2.65521021e-06, 1.50771865e-19,
          -1.33178355e-05, 1.50771865e-19, -3.77755896e-06,
          1.50771865e-19, -2.84144130e-06, 1.50771865e-19,
          -9.91868637e-06, 1.50771865e-19, 1.12756572e-06,
          1.50771865e-19, 1.32198702e-05, 1.50771865e-19, 2.11146998e-05,
          1.50771865e-19, 1.66233240e-05, 1.50771865e-19,
          -4.50750349e-06, 1.50771865e-19, -1.17493910e-05,
          1.50771865e-19, -3.42143812e-06, 1.50771865e-19,
          9.35143362e-06, 1.50771865e-19, 1.03356469e-05, 1.50771865e-19,
          1.68367460e-05, 1.50771865e-19, 2.22373292e-05, 1.50771865e-19,
          1.67576654e-05, 1.50771865e-19, 1.26478017e-05, 1.50771865e-19,
          1.13832621e-05, 1.50771865e-19, 9.24357300e-06, 1.50771865e-19,
          6.91252171e-06, 1.50771865e-19, 8.66655409e-06, 1.50771865e-19,
          1.54156423e-05, 1.50771865e-19, 2.11209081e-05, 1.50771865e-19,
          1.62847427e-05, 1.50771865e-19, 2.26317243e-05, 1.50771865e-19,
          1.69672421e-05, 1.50771865e-19, -2.78424545e-06,
          1.50771865e-19, -4.37011613e-06, 1.50771865e-19,
          -8.66543269e-06, 1.50771865e-19, 6.05741025e-06,
          1.50771865e-19, 1.32723494e-06, 1.50771865e-19, 1.79034123e-05,
          1.50771865e-19, 1.84388100e-05, 1.50771865e-19, 2.19665089e-05,
          1.50771865e-19, 1.26201476e-05, 1.50771865e-19, 7.04917693e-06,
          1.50771865e-19, 3.17927743e-06, 1.50771865e-19, 2.38161675e-07,
          1.50771865e-19, 3.06905008e-06, 1.50771865e-19, 1.27896546e-05,
          1.50771865e-19, -1.13427959e-05, 1.50771865e-19,
          -7.12063638e-06, 1.50771865e-19, -1.10134706e-05,
          1.50771865e-19, -8.13246970e-06, 1.50771865e-19,
          -7.86186433e-07, 1.50771865e-19, 3.44042206e-07,
          1.50771865e-19, 6.22841071e-06, 1.50771865e-19,
          -3.65937967e-06, 1.50771865e-19, -6.89883473e-06,
          1.50771865e-19, -3.30117587e-06, 1.50771865e-19,
          1.29980845e-06, 1.50771865e-19, 8.41168912e-06, 1.50771865e-19,
          2.97072393e-06, 1.50771865e-19, 1.06077223e-05, 1.50771865e-19,
          1.05126619e-05, 1.50771865e-19, 7.33904199e-06, 1.50771865e-19,
          1.37101597e-05, 1.50771865e-19, 1.50075903e-05, 1.50771865e-19,
          5.27147449e-06, 1.50771865e-19, 2.69629140e-06, 1.50771865e-19,
          -3.15345460e-06, 1.50771865e-19, 5.67885127e-06,
          1.50771865e-19, 8.23156006e-06, 1.50771865e-19, 6.61696458e-06,
          1.50771865e-19, 8.07146171e-06, 1.50771865e-19, 9.00187661e-06,
          1.50771865e-19, 2.13648091e-05, 1.50771865e-19, 3.51751878e-05,
          1.50771865e-19, 2.34992513e-05, 1.50771865e-19, 5.30156922e-06,
          1.50771865e-19, 5.94393350e-06, 1.50771865e-19, 7.48551429e-06,
          1.50771865e-19, -4.64614550e-06, 1.50771865e-19,
          -1.34793208e-05, 1.50771865e-19, -2.09090904e-05,
          1.50771865e-19, -3.04433779e-05, 1.50771865e-19,
          -1.79043982e-05, 1.50771865e-19, -9.81194444e-06,
          1.50771865e-19, -1.04794653e-05, 1.50771865e-19,
          4.27976192e-06, 1.50771865e-19, 8.83474513e-06, 1.50771865e-19,
          -5.81466657e-06, 1.50771865e-19, -4.60775391e-06,
          1.50771865e-19, -1.24024900e-05, 1.50771865e-19,
          -1.07742462e-05, 1.50771865e-19, -5.57618705e-06,
          1.50771865e-19, -1.70472572e-06, 1.50771865e-19,
          -2.62165031e-06, 1.50771865e-19, 4.60828915e-06,
          1.50771865e-19, 6.73231443e-06, 1.50771865e-19, 6.54488031e-06,
          1.50771865e-19, -5.65464279e-06, 1.50771865e-19,
          -3.34733750e-06, 1.50771865e-19, -3.48965955e-07,
          1.50771865e-19, 1.07216465e-05, 1.50771865e-19, 3.50314463e-06,
          1.50771865e-19, -8.04194769e-07, 1.50771865e-19,
          -5.82271184e-07, 1.50771865e-19, 3.65888741e-06,
          1.50771865e-19, -1.62055892e-06, 1.50771865e-19,
          -4.76152991e-06, 1.50771865e-19, -5.53545124e-06,
          1.50771865e-19, 4.94823269e-07, 1.50771865e-19, 1.14508784e-05,
          1.50771865e-19, 6.23322285e-06, 1.50771865e-19,
          -6.94714208e-06, 1.50771865e-19, -9.33415663e-07,
          1.50771865e-19, 5.78599020e-06, 1.50771865e-19, 1.05653271e-05,
          1.50771865e-19, 9.51027118e-07, 1.50771865e-19, 2.61707805e-06,
          1.50771865e-19, 5.99083819e-07, 1.50771865e-19, 3.63276371e-07,
          1.50771865e-19, -4.08473943e-06, 1.50771865e-19,
          -1.00706675e-05, 1.50771865e-19, -1.38746827e-05,
          1.50771865e-19, -1.02160175e-05, 1.50771865e-19,
          -2.40375152e-06, 1.50771865e-19, -1.50647293e-06,
          1.50771865e-19, -3.64113987e-07, 1.50771865e-19,
          -1.32310306e-05, 1.50771865e-19, -1.12796133e-05,
          1.50771865e-19, -1.64772882e-05, 1.50771865e-19,
          -1.69766809e-05, 1.50771865e-19, -1.63917503e-05,
          1.50771865e-19, -8.51765617e-06, 1.50771865e-19,
          -2.66481784e-05, 1.50771865e-19, -3.58203033e-05,
          1.50771865e-19, -1.83097764e-05, 1.50771865e-19,
          -4.59925241e-06, 1.50771865e-19, -6.33644686e-06,
          1.50771865e-19, -6.82064638e-06, 1.50771865e-19,
          -1.57824034e-05, 1.50771865e-19, -1.11178324e-05,
          1.50771865e-19, -5.50070217e-06, 1.50771865e-19,
          -1.81224277e-05, 1.50771865e-19, -2.12940467e-05,
          1.50771865e-19, -1.12818279e-05, 1.50771865e-19,
          2.44260718e-06, 1.50771865e-19, 3.95127699e-06, 1.50771865e-19,
          9.77222680e-06, 1.50771865e-19, 6.80727862e-06, 1.50771865e-19,
          -3.04787864e-06, 1.50771865e-19, -6.54920950e-06,
          1.50771865e-19, -1.87844512e-06, 1.50771865e-19,
          6.75406636e-06, 1.50771865e-19, -6.14441888e-06,
          1.50771865e-19, 5.34050469e-06, 1.50771865e-19, 4.07142215e-06,
          1.50771865e-19, 1.91137519e-06, 1.50771865e-19, 4.91652099e-06,
          1.50771865e-19, -1.16297115e-05, 1.50771865e-19,
          -1.81248124e-05, 1.50771865e-19, -2.01076236e-05,
          1.50771865e-19, -1.13139185e-05, 1.50771865e-19,
          -1.10968258e-05, 1.50771865e-19, 4.11958399e-06,
          1.50771865e-19, -3.30825628e-06, 1.50771865e-19,
          -7.66049288e-06, 1.50771865e-19, -7.23592530e-06,
          1.50771865e-19, -9.78220487e-06, 1.50771865e-19,
          -2.82262727e-06, 1.50771865e-19, -7.93477284e-06,
          1.50771865e-19, -4.92194022e-06, 1.50771865e-19,
          -1.04161400e-05, 1.50771865e-19, -1.23534719e-05,
          1.50771865e-19, -8.56374572e-06, 1.50771865e-19,
          -7.02811440e-06, 1.50771865e-19, 1.28764793e-06,
          1.50771865e-19, 1.16029814e-05, 1.50771865e-19, 1.71956435e-05,
          1.50771865e-19, 1.00818443e-05, 1.50771865e-19, 1.60055824e-05,
          1.50771865e-19, 1.91119907e-05, 1.50771865e-19, 1.04768360e-05,
          1.50771865e-19, 3.58829448e-06, 1.50771865e-19,
          -8.29689088e-06, 1.50771865e-19, -1.21920866e-05,
          1.50771865e-19, 9.52557093e-06, 1.50771865e-19, 8.58063322e-06,
          1.50771865e-19, 9.79464312e-06, 1.50771865e-19, 8.55991220e-06,
          1.50771865e-19, 5.52255096e-06, 1.50771865e-19, 9.32675721e-06,
          1.50771865e-19, 3.57495821e-07, 1.50771865e-19,
          -1.53605640e-06, 1.50771865e-19, -6.15117415e-06,
          1.50771865e-19, -8.51580717e-06, 1.50771865e-19,
          -5.91455500e-06, 1.50771865e-19, -1.65038034e-06,
          1.50771865e-19, -1.56665683e-05, 1.50771865e-19,
          -1.24065273e-05, 1.50771865e-19, -1.31798686e-06,
          1.50771865e-19, -5.01622981e-06, 1.50771865e-19,
          2.48692959e-06, 1.50771865e-19, 2.01976327e-05, 1.50771865e-19,
          1.46208986e-05, 1.50771865e-19, 1.31382212e-05, 1.50771865e-19,
          1.14998265e-05, 1.50771865e-19, 5.79821972e-06, 1.50771865e-19,
          -8.87451370e-06, 1.50771865e-19, -6.14365354e-06,
          1.50771865e-19, -4.60412321e-06, 1.50771865e-19,
          -1.52975929e-06, 1.50771865e-19, 2.82609960e-07,
          1.50771865e-19, 1.42324361e-05, 1.50771865e-19, 2.40101454e-05,
          1.50771865e-19, 1.38505520e-05, 1.50771865e-19,
          -3.91353296e-06, 1.50771865e-19, -1.33445074e-05,
          1.50771865e-19, 1.98585144e-06, 1.50771865e-19, 1.78674181e-05,
          1.50771865e-19, 9.65877280e-06, 1.50771865e-19, 1.72745167e-05,
          1.50771865e-19, 2.45704359e-05, 1.50771865e-19, 1.13662581e-05,
          1.50771865e-19, 2.13689282e-06, 1.50771865e-19, 1.78594712e-06,
          1.50771865e-19, 4.60144565e-06, 1.50771865e-19, 5.83853353e-06,
          1.50771865e-19, 1.27389512e-05, 1.50771865e-19, 1.15194807e-05,
          1.50771865e-19, 2.21055434e-05, 1.50771865e-19, 2.32625607e-05,
          1.50771865e-19, 2.09694790e-05, 1.50771865e-19, 1.51008462e-05,
          1.50771865e-19, -4.94766346e-06, 1.50771865e-19,
          -3.00851525e-07, 1.50771865e-19, -6.96915913e-06,
          1.50771865e-19, 8.18131593e-06, 1.50771865e-19, 2.91070364e-06,
          1.50771865e-19, 1.60048930e-05, 1.50771865e-19, 1.33360709e-05,
          1.50771865e-19, 2.02846331e-05, 1.50771865e-19, 9.41640974e-06,
          1.50771865e-19, -9.50913659e-07, 1.50771865e-19,
          -3.21240077e-06, 1.50771865e-19, 9.56402346e-07,
          1.50771865e-19, 1.53341643e-05, 1.50771865e-19, 1.30734861e-05,
          1.50771865e-19, -1.48828531e-05, 1.50771865e-19,
          -2.29589000e-06, 1.50771865e-19, -4.81971756e-06,
          1.50771865e-19, -2.90936487e-06, 1.50771865e-19,
          -1.19409094e-06, 1.50771865e-19, 3.60533909e-06,
          1.50771865e-19, 9.49035802e-06, 1.50771865e-19,
          -4.57629312e-07, 1.50771865e-19, -5.65025221e-06,
          1.50771865e-19, -3.22149248e-07, 1.50771865e-19,
          1.30790513e-05, 1.50771865e-19, 1.12362786e-05, 1.50771865e-19,
          7.27655379e-06, 1.50771865e-19, 8.72997498e-06, 1.50771865e-19,
          1.26238301e-05, 1.50771865e-19, 1.20949753e-05, 1.50771865e-19,
          1.66929603e-05, 1.50771865e-19, 6.85373652e-06, 1.50771865e-19,
          1.45164095e-05, 1.50771865e-19, 4.04639832e-06, 1.50771865e-19,
          1.10035565e-07, 1.50771865e-19, 5.63503045e-06, 1.50771865e-19,
          5.48623711e-06, 1.50771865e-19, 1.39881431e-05, 1.50771865e-19,
          1.26158457e-05, 1.50771865e-19, 1.62462366e-05, 1.50771865e-19,
          2.02091014e-05, 1.50771865e-19, 2.73751684e-05, 1.50771865e-19,
          1.34450520e-05, 1.50771865e-19, 5.26109534e-06, 1.50771865e-19,
          8.94184905e-06, 1.50771865e-19, 7.74566524e-06, 1.50771865e-19,
          5.11082317e-06, 1.50771865e-19, -1.38303740e-05,
          1.50771865e-19, -1.95880020e-05, 1.50771865e-19,
          -2.85780297e-05, 1.50771865e-19, -2.44644925e-05,
          1.50771865e-19, -9.58183591e-07, 1.50771865e-19,
          -1.38145992e-06, 1.50771865e-19, -6.68740768e-06,
          1.50771865e-19, -3.59316732e-06, 1.50771865e-19,
          -1.58059311e-06, 1.50771865e-19, -7.62550417e-06,
          1.50771865e-19, -1.14649929e-05, 1.50771865e-19,
          -8.28531847e-06, 1.50771865e-19, -2.64236405e-06,
          1.50771865e-19, -1.37720895e-06, 1.50771865e-19,
          6.74401917e-06, 1.50771865e-19, 1.38566693e-05, 1.50771865e-19,
          1.08827981e-05, 1.50771865e-19, 6.96990628e-06, 1.50771865e-19,
          4.63398419e-06, 1.50771865e-19, 4.27740724e-06, 1.50771865e-19,
          5.61124989e-06, 1.50771865e-19, 1.63370114e-05, 1.50771865e-19,
          8.22787479e-06, 1.50771865e-19, 7.71602845e-06, 1.50771865e-19,
          7.73661304e-06, 1.50771865e-19, 2.21654841e-06, 1.50771865e-19,
          -4.06739900e-06, 1.50771865e-19, -8.72664771e-07,
          1.50771865e-19, -6.76837681e-06, 1.50771865e-19,
          -8.39214920e-07, 1.50771865e-19, 4.12327927e-06,
          1.50771865e-19, 3.24417283e-06, 1.50771865e-19,
          -8.17077944e-06, 1.50771865e-19, -7.86050623e-06,
          1.50771865e-19, 4.00843737e-06, 1.50771865e-19, 8.50988181e-06,
          1.50771865e-19, 4.40230860e-06, 1.50771865e-19, 2.71482963e-06,
          1.50771865e-19, 3.74220394e-06, 1.50771865e-19,
          -6.17374371e-06, 1.50771865e-19, -1.40213333e-05,
          1.50771865e-19, -1.51206686e-05, 1.50771865e-19,
          -1.18466633e-05, 1.50771865e-19, -1.20024351e-05,
          1.50771865e-19, -2.89036166e-06, 1.50771865e-19,
          -2.30300361e-06, 1.50771865e-19, -4.50591415e-06,
          1.50771865e-19, -9.35232947e-06, 1.50771865e-19,
          -4.52688425e-07, 1.50771865e-19, -1.05605359e-05,
          1.50771865e-19, -1.60395302e-05, 1.50771865e-19,
          -8.71625980e-06, 1.50771865e-19, -3.87140290e-06,
          1.50771865e-19, -2.34962081e-05, 1.50771865e-19,
          -2.87612311e-05, 1.50771865e-19, -1.45354779e-05,
          1.50771865e-19, -8.63024161e-06, 1.50771865e-19,
          2.25160034e-06, 1.50771865e-19, 9.73272563e-07, 1.50771865e-19,
          -7.55687097e-06, 1.50771865e-19, -7.33252875e-07,
          1.50771865e-19, 1.87445437e-06, 1.50771865e-19,
          -4.09638460e-06, 1.50771865e-19, -9.15228429e-06,
          1.50771865e-19, -1.16099363e-05, 1.50771865e-19,
          -1.24708786e-05, 1.50771865e-19, -3.79058429e-06,
          1.50771865e-19, 4.70365922e-06, 1.50771865e-19, 8.01757324e-06,
          1.50771865e-19, -3.91154754e-06, 1.50771865e-19,
          -5.47695390e-06, 1.50771865e-19, 3.99288956e-06,
          1.50771865e-19, 3.99867986e-06, 1.50771865e-19, 4.64979530e-06,
          1.50771865e-19, 6.22143261e-06, 1.50771865e-19, 7.00156806e-06,
          1.50771865e-19, 9.60448597e-06, 1.50771865e-19, 5.94338474e-07,
          1.50771865e-19, -1.71611664e-05, 1.50771865e-19,
          -1.38033793e-05, 1.50771865e-19, -1.74341712e-05,
          1.50771865e-19, -1.90501705e-05, 1.50771865e-19,
          -4.29216561e-06, 1.50771865e-19, 9.48160903e-07,
          1.50771865e-19, -1.00936350e-05, 1.50771865e-19,
          -9.72390626e-06, 1.50771865e-19, -5.26522399e-06,
          1.50771865e-19, -3.15459374e-06, 1.50771865e-19,
          -3.75417494e-06, 1.50771865e-19, -4.82091355e-06,
          1.50771865e-19, -1.37800653e-05, 1.50771865e-19,
          -1.12999078e-05, 1.50771865e-19, -2.09082227e-05,
          1.50771865e-19, -2.25731728e-05, 1.50771865e-19,
          -8.12635335e-06, 1.50771865e-19, 3.27331554e-06,
          1.50771865e-19, 8.10504480e-06, 1.50771865e-19, 1.52410030e-05,
          1.50771865e-19, 1.02631438e-05, 1.50771865e-19, 1.96888013e-05,
          1.50771865e-19, 2.42254864e-05, 1.50771865e-19, 1.91958625e-05,
          1.50771865e-19, 5.80851292e-06, 1.50771865e-19,
          -8.15513613e-06, 1.50771865e-19, -1.07768628e-05,
          1.50771865e-19, 1.03020102e-05, 1.50771865e-19, 2.97373708e-06,
          1.50771865e-19, 1.14518034e-05, 1.50771865e-19, 2.90539924e-06,
          1.50771865e-19, 1.67062706e-06, 1.50771865e-19,
          -2.41345765e-06, 1.50771865e-19, -1.21474466e-06,
          1.50771865e-19, 1.48143090e-06, 1.50771865e-19,
          -4.96675057e-06, 1.50771865e-19, -1.37302895e-05,
          1.50771865e-19, -1.19888973e-05, 1.50771865e-19,
          -1.29997761e-05, 1.50771865e-19, -1.03846905e-05,
          1.50771865e-19, -1.03981811e-05, 1.50771865e-19,
          -8.89077910e-06, 1.50771865e-19, -9.77633135e-06,
          1.50771865e-19, -4.69617271e-06, 1.50771865e-19,
          1.71094089e-05, 1.50771865e-19, 1.94510412e-05, 1.50771865e-19,
          2.71462231e-05, 1.50771865e-19, 2.55196192e-05, 1.50771865e-19,
          9.92031687e-07, 1.50771865e-19, 9.75854391e-07, 1.50771865e-19,
          -1.69962118e-06, 1.50771865e-19, -1.08401391e-05,
          1.50771865e-19, 3.61527526e-07, 1.50771865e-19,
          -1.85450332e-07, 1.50771865e-19, 1.35735290e-05,
          1.50771865e-19, 2.45108713e-05, 1.50771865e-19, 1.22192560e-05,
          1.50771865e-19, 6.14913097e-06, 1.50771865e-19,
          -5.23545305e-06, 1.50771865e-19, -2.41412044e-06,
          1.50771865e-19, 1.77040602e-05, 1.50771865e-19, 1.64914491e-05,
          1.50771865e-19, 1.21313760e-05, 1.50771865e-19, 1.59622432e-05,
          1.50771865e-19, 6.98784106e-06, 1.50771865e-19,
          -2.82098631e-06, 1.50771865e-19, 2.13539963e-07,
          1.50771865e-19, -3.43928150e-06, 1.50771865e-19,
          -1.29746809e-06, 1.50771865e-19, 7.70617316e-06,
          1.50771865e-19, 1.61839616e-05, 1.50771865e-19, 1.71274969e-05,
          1.50771865e-19, 1.70916373e-05, 1.50771865e-19, 1.25984134e-05,
          1.50771865e-19, 8.19525030e-06, 1.50771865e-19,
          -1.24022044e-05, 1.50771865e-19, -5.00947772e-06,
          1.50771865e-19, 7.78902972e-07, 1.50771865e-19, 7.50629852e-06,
          1.50771865e-19, 7.46010119e-06, 1.50771865e-19, 1.43511688e-05,
          1.50771865e-19, 1.99736496e-05, 1.50771865e-19, 1.26557161e-05,
          1.50771865e-19, 8.55899725e-06, 1.50771865e-19, 2.80112090e-06,
          1.50771865e-19, -1.46202342e-06, 1.50771865e-19,
          1.22666024e-05, 1.50771865e-19, 9.54254301e-06, 1.50771865e-19,
          4.06089339e-06, 1.50771865e-19, -7.64495417e-06,
          1.50771865e-19, -3.81210202e-06, 1.50771865e-19,
          8.16133479e-07, 1.50771865e-19, 7.52142660e-06, 1.50771865e-19,
          -1.01009050e-06, 1.50771865e-19, 5.42871749e-06,
          1.50771865e-19, 2.63375796e-06, 1.50771865e-19,
          -6.31378327e-07, 1.50771865e-19, -3.02743359e-07,
          1.50771865e-19, -1.98150497e-06, 1.50771865e-19,
          -5.92540528e-06, 1.50771865e-19, -2.24828659e-06,
          1.50771865e-19, 7.78130743e-06, 1.50771865e-19, 1.18909502e-05,
          1.50771865e-19, 1.78339033e-05, 1.50771865e-19, 2.13739768e-05,
          1.50771865e-19, 1.66691716e-05, 1.50771865e-19, 4.11445990e-06,
          1.50771865e-19, 1.88337890e-05, 1.50771865e-19,
          -1.06232697e-07, 1.50771865e-19, -5.71991040e-06,
          1.50771865e-19, -1.97791678e-06, 1.50771865e-19,
          9.12679843e-06, 1.50771865e-19, 1.49843900e-05, 1.50771865e-19,
          2.14282718e-05, 1.50771865e-19, 2.52699519e-05, 1.50771865e-19,
          2.46098880e-05, 1.50771865e-19, 2.29476300e-05, 1.50771865e-19,
          1.45272816e-05, 1.50771865e-19, 5.93852201e-06, 1.50771865e-19,
          4.68701046e-06, 1.50771865e-19, 9.17128489e-07, 1.50771865e-19,
          -3.68927385e-06, 1.50771865e-19, -1.23633672e-05,
          1.50771865e-19, -9.68689437e-06, 1.50771865e-19,
          -1.59448391e-05, 1.50771865e-19, -1.57249378e-05,
          1.50771865e-19, 4.16480498e-06, 1.50771865e-19, 1.60988066e-06,
          1.50771865e-19, -5.79191556e-06, 1.50771865e-19,
          -8.72986845e-07, 1.50771865e-19, 4.45832984e-06,
          1.50771865e-19, 1.95361554e-06, 1.50771865e-19,
          -7.81195013e-06, 1.50771865e-19, -9.67342567e-06,
          1.50771865e-19, -6.73409750e-06, 1.50771865e-19,
          -9.29328792e-08, 1.50771865e-19, 1.21288831e-05,
          1.50771865e-19, 1.32871810e-05, 1.50771865e-19, 8.35614264e-06,
          1.50771865e-19, 1.47231492e-06, 1.50771865e-19, 8.51079949e-06,
          1.50771865e-19, 6.70879854e-06, 1.50771865e-19, 5.33510502e-06,
          1.50771865e-19, 8.62991419e-06, 1.50771865e-19, 1.14779486e-05,
          1.50771865e-19, 7.83356154e-06, 1.50771865e-19,
          -7.39989687e-08, 1.50771865e-19, 1.27016619e-06,
          1.50771865e-19, 2.26566362e-06, 1.50771865e-19,
          -1.60564900e-06, 1.50771865e-19, -1.29224952e-06,
          1.50771865e-19, 6.85215582e-06, 1.50771865e-19, 4.26605266e-06,
          1.50771865e-19, 6.39134123e-06, 1.50771865e-19,
          -4.54860765e-06, 1.50771865e-19, -9.49682453e-06,
          1.50771865e-19, 2.57906481e-06, 1.50771865e-19, 8.84447945e-06,
          1.50771865e-19, 4.01974148e-06, 1.50771865e-19,
          -1.68412976e-06, 1.50771865e-19, -3.46445381e-06,
          1.50771865e-19, -7.73313604e-06, 1.50771865e-19,
          -1.82948243e-05, 1.50771865e-19, -1.64949142e-05,
          1.50771865e-19, -1.37914612e-05, 1.50771865e-19,
          -9.28334885e-06, 1.50771865e-19, -1.77942911e-06,
          1.50771865e-19, 1.96242195e-06, 1.50771865e-19,
          -3.19008700e-06, 1.50771865e-19, -5.01023942e-06,
          1.50771865e-19, -3.32656145e-06, 1.50771865e-19,
          -9.32359580e-06, 1.50771865e-19, -6.93357879e-06,
          1.50771865e-19, 5.01856994e-06, 1.50771865e-19,
          -9.99156418e-06, 1.50771865e-19, -2.93621852e-05,
          1.50771865e-19, -2.08651891e-05, 1.50771865e-19,
          -1.54402314e-05, 1.50771865e-19, -7.33876277e-06,
          1.50771865e-19, -5.20834078e-07, 1.50771865e-19,
          -3.93728942e-06, 1.50771865e-19, -6.03731996e-06,
          1.50771865e-19, 4.87451462e-06, 1.50771865e-19, 4.06222989e-06,
          1.50771865e-19, -1.15978319e-05, 1.50771865e-19,
          -1.53568617e-05, 1.50771865e-19, -1.86202687e-05,
          1.50771865e-19, -1.13573642e-05, 1.50771865e-19,
          -1.92421521e-05, 1.50771865e-19, -1.59598640e-05,
          1.50771865e-19, -1.25080021e-07, 1.50771865e-19,
          -6.47542583e-06, 1.50771865e-19, -3.17448871e-06,
          1.50771865e-19, 7.56798454e-06, 1.50771865e-19,
          -1.53090059e-06, 1.50771865e-19, -1.02254453e-05,
          1.50771865e-19, -3.77243396e-06, 1.50771865e-19,
          7.47038848e-06, 1.50771865e-19, 7.24430720e-06, 1.50771865e-19,
          -7.54756593e-06, 1.50771865e-19, -2.03117652e-05,
          1.50771865e-19, -1.62769011e-05, 1.50771865e-19,
          -2.14813608e-05, 1.50771865e-19, -1.87408605e-05,
          1.50771865e-19, -5.26490385e-06, 1.50771865e-19,
          1.31077616e-06, 1.50771865e-19, -7.52785581e-06,
          1.50771865e-19, -4.59133662e-06, 1.50771865e-19,
          -6.52684275e-06, 1.50771865e-19, -4.70559507e-06,
          1.50771865e-19, -7.68900827e-06, 1.50771865e-19,
          -1.41062465e-05, 1.50771865e-19, -1.88007725e-05,
          1.50771865e-19, -1.68003135e-05, 1.50771865e-19,
          -2.45326501e-05, 1.50771865e-19, -2.22486524e-05,
          1.50771865e-19, -9.38564881e-06, 1.50771865e-19,
          -7.05114076e-07, 1.50771865e-19, 6.43652447e-06,
          1.50771865e-19, 1.35065839e-05, 1.50771865e-19, 1.19031492e-05,
          1.50771865e-19, 2.09070513e-05, 1.50771865e-19, 2.77767012e-05,
          1.50771865e-19, 2.42525421e-05, 1.50771865e-19, 8.77376715e-06,
          1.50771865e-19, -8.47976935e-06, 1.50771865e-19,
          -1.28281554e-05, 1.50771865e-19, 1.37922880e-05,
          1.50771865e-19, 1.41985788e-06, 1.50771865e-19,
          -2.15206842e-06, 1.50771865e-19, 5.23559493e-06,
          1.50771865e-19, 2.72578700e-06, 1.50771865e-19,
          -2.04677363e-07, 1.50771865e-19, 3.13758778e-06,
          1.50771865e-19, 9.74843624e-06, 1.50771865e-19,
          -8.64803496e-06, 1.50771865e-19, -1.02211252e-05,
          1.50771865e-19, -1.06522511e-05, 1.50771865e-19,
          -9.40360769e-06, 1.50771865e-19, -1.09586317e-05,
          1.50771865e-19, -6.68290704e-06, 1.50771865e-19,
          -1.22748725e-05, 1.50771865e-19, -1.30866920e-05,
          1.50771865e-19, -1.40548639e-06, 1.50771865e-19,
          6.19875664e-06, 1.50771865e-19, 2.03631243e-05, 1.50771865e-19,
          2.53854960e-05, 1.50771865e-19, 1.50771930e-05, 1.50771865e-19,
          -1.02464255e-05, 1.50771865e-19, -2.65551222e-07,
          1.50771865e-19, -4.47354887e-06, 1.50771865e-19,
          -9.51094535e-06, 1.50771865e-19, -8.17585624e-06,
          1.50771865e-19, -5.05038855e-08, 1.50771865e-19,
          9.73084752e-06, 1.50771865e-19, 1.74892484e-05, 1.50771865e-19,
          1.49894386e-05, 1.50771865e-19, -2.27191981e-06,
          1.50771865e-19, -1.25783254e-05, 1.50771865e-19,
          -5.00807755e-06, 1.50771865e-19, 9.03956516e-06,
          1.50771865e-19, 1.18893977e-05, 1.50771865e-19, 1.11386707e-05,
          1.50771865e-19, 6.70076952e-06, 1.50771865e-19, 3.07632536e-06,
          1.50771865e-19, 4.36247001e-06, 1.50771865e-19, 2.73558953e-06,
          1.50771865e-19, 4.45100068e-06, 1.50771865e-19,
          -6.40568169e-06, 1.50771865e-19, 7.99597456e-06,
          1.50771865e-19, 6.15712270e-06, 1.50771865e-19, 8.76954527e-06,
          1.50771865e-19, 1.49631478e-05, 1.50771865e-19, 7.69717553e-06,
          1.50771865e-19, 6.89813669e-06, 1.50771865e-19,
          -1.04440815e-05, 1.50771865e-19, -1.44457663e-05,
          1.50771865e-19, -1.29887167e-05, 1.50771865e-19,
          5.04412674e-06, 1.50771865e-19, 9.80786081e-06, 1.50771865e-19,
          1.87298701e-05, 1.50771865e-19, 2.37643344e-05, 1.50771865e-19,
          1.73893368e-05, 1.50771865e-19, 6.77206936e-06, 1.50771865e-19,
          3.32703934e-07, 1.50771865e-19, -1.09896127e-05,
          1.50771865e-19, -1.35008918e-06, 1.50771865e-19,
          1.46724369e-06, 1.50771865e-19, 6.26390420e-06, 1.50771865e-19,
          7.41384019e-06, 1.50771865e-19, 1.92352832e-06, 1.50771865e-19,
          -3.13684995e-06, 1.50771865e-19, 4.13769340e-06,
          1.50771865e-19, -2.60763272e-06, 1.50771865e-19,
          -1.41311666e-05, 1.50771865e-19, -9.06356581e-06,
          1.50771865e-19, 1.58371058e-05, 1.50771865e-19, 1.06757871e-05,
          1.50771865e-19, 1.51384347e-06, 1.50771865e-19, 2.80572272e-06,
          1.50771865e-19, -2.45213619e-06, 1.50771865e-19,
          1.37682027e-05, 1.50771865e-19, 2.12822961e-05, 1.50771865e-19,
          1.84608871e-05, 1.50771865e-19, 2.13248641e-05, 1.50771865e-19,
          1.94450404e-05, 1.50771865e-19, 1.12962362e-05, 1.50771865e-19,
          1.02862914e-05, 1.50771865e-19, -1.50523044e-06,
          1.50771865e-19, -7.11306711e-06, 1.50771865e-19,
          4.45118258e-06, 1.50771865e-19, 1.24448943e-05, 1.50771865e-19,
          6.14743703e-06, 1.50771865e-19, 9.47376066e-06, 1.50771865e-19,
          1.09558232e-05, 1.50771865e-19, 1.52432940e-05, 1.50771865e-19,
          2.25542190e-05, 1.50771865e-19, 5.49059450e-06, 1.50771865e-19,
          -3.89805973e-06, 1.50771865e-19, -4.11031351e-06,
          1.50771865e-19, -7.33582146e-06, 1.50771865e-19,
          -1.11416621e-05, 1.50771865e-19, -7.84074109e-06,
          1.50771865e-19, -1.72817308e-05, 1.50771865e-19,
          -1.03258790e-05, 1.50771865e-19, -9.07183392e-07,
          1.50771865e-19, -2.38774442e-06, 1.50771865e-19,
          6.94645905e-06, 1.50771865e-19, -2.29813054e-06,
          1.50771865e-19, 5.54757162e-06, 1.50771865e-19, 1.74454308e-05,
          1.50771865e-19, 4.22327639e-06, 1.50771865e-19,
          -4.58995964e-06, 1.50771865e-19, -1.27336689e-05,
          1.50771865e-19, -1.35958899e-05, 1.50771865e-19,
          1.03945411e-06, 1.50771865e-19, 8.14264695e-06, 1.50771865e-19,
          4.30674754e-06, 1.50771865e-19, -4.87414673e-06,
          1.50771865e-19, 4.99325154e-07, 1.50771865e-19, 8.27601980e-06,
          1.50771865e-19, 1.46792827e-05, 1.50771865e-19, 8.80700463e-06,
          1.50771865e-19, -1.23627547e-06, 1.50771865e-19,
          1.51512631e-05, 1.50771865e-19, 3.40341830e-06, 1.50771865e-19,
          -5.81370250e-06, 1.50771865e-19, 1.59682361e-06,
          1.50771865e-19, -4.82794530e-06, 1.50771865e-19,
          -9.71673489e-06, 1.50771865e-19, -2.25436807e-07,
          1.50771865e-19, 4.07582547e-06, 1.50771865e-19, 2.72540797e-06,
          1.50771865e-19, 1.39563572e-05, 1.50771865e-19, 5.24350253e-06,
          1.50771865e-19, 3.31609635e-06, 1.50771865e-19,
          -5.24467339e-07, 1.50771865e-19, -4.59848451e-07,
          1.50771865e-19, 6.86101794e-06, 1.50771865e-19,
          -4.87870057e-06, 1.50771865e-19, -1.31262896e-05,
          1.50771865e-19, -1.46361408e-05, 1.50771865e-19,
          -2.25812219e-05, 1.50771865e-19, -2.40974023e-05,
          1.50771865e-19, -1.95668017e-05, 1.50771865e-19,
          -4.63530250e-06, 1.50771865e-19, 5.31972501e-06,
          1.50771865e-19, -5.47717377e-07, 1.50771865e-19,
          -6.53757843e-06, 1.50771865e-19, -1.47913361e-05,
          1.50771865e-19, -7.79590482e-06, 1.50771865e-19,
          -1.29326709e-05, 1.50771865e-19, -1.60788460e-07,
          1.50771865e-19, 8.87772330e-06, 1.50771865e-19,
          -8.89023522e-06, 1.50771865e-19, -2.09834452e-05,
          1.50771865e-19, -1.47831306e-05, 1.50771865e-19,
          -1.26595287e-05, 1.50771865e-19, -5.85701127e-06,
          1.50771865e-19, -9.09834125e-06, 1.50771865e-19,
          -6.55027316e-06, 1.50771865e-19, 8.63398600e-06,
          1.50771865e-19, 1.51984277e-05, 1.50771865e-19,
          -3.22664710e-06, 1.50771865e-19, -1.62771394e-05,
          1.50771865e-19, -1.56435362e-05, 1.50771865e-19,
          -1.00987281e-05, 1.50771865e-19, -1.09800530e-05,
          1.50771865e-19, -2.10205999e-05, 1.50771865e-19,
          -1.73507706e-05, 1.50771865e-19, -5.62544210e-06,
          1.50771865e-19, -1.24202488e-05, 1.50771865e-19,
          -2.14789247e-06, 1.50771865e-19, 3.38409131e-06,
          1.50771865e-19, -2.96383678e-06, 1.50771865e-19,
          -5.41123154e-06, 1.50771865e-19, -2.08981717e-07,
          1.50771865e-19, 6.51430128e-06, 1.50771865e-19, 8.68572079e-06,
          1.50771865e-19, -3.40130714e-06, 1.50771865e-19,
          -1.08095182e-05, 1.50771865e-19, -9.25832410e-06,
          1.50771865e-19, -2.20484471e-05, 1.50771865e-19,
          -1.80511470e-05, 1.50771865e-19, -8.05636591e-06,
          1.50771865e-19, -7.27321367e-06, 1.50771865e-19,
          -1.64606954e-05, 1.50771865e-19, -7.54252096e-06,
          1.50771865e-19, -1.09533548e-05, 1.50771865e-19,
          -1.42424806e-05, 1.50771865e-19, -7.68386781e-06,
          1.50771865e-19, -1.60884101e-05, 1.50771865e-19,
          -1.50211172e-05, 1.50771865e-19, -1.89861566e-05,
          1.50771865e-19, -2.69296743e-05, 1.50771865e-19,
          -2.31133599e-05, 1.50771865e-19, -1.48140343e-05,
          1.50771865e-19, 1.02718002e-06, 1.50771865e-19, 1.21753064e-05,
          1.50771865e-19, 1.20207615e-05, 1.50771865e-19, 1.44173409e-05,
          1.50771865e-19, 2.37146414e-05, 1.50771865e-19, 3.09706957e-05,
          1.50771865e-19, 1.66762111e-05, 1.50771865e-19,
          -9.07049866e-07, 1.50771865e-19, -4.66203210e-06,
          1.50771865e-19, 7.97465361e-07, 1.50771865e-19, 6.32752699e-06,
          1.50771865e-19, -2.88036449e-06, 1.50771865e-19,
          -7.71384020e-06, 1.50771865e-19, 1.84440705e-06,
          1.50771865e-19, 6.15866384e-06, 1.50771865e-19, 5.41363988e-06,
          1.50771865e-19, -5.29785120e-06, 1.50771865e-19,
          5.79812820e-07, 1.50771865e-19, -3.17482841e-06,
          1.50771865e-19, -1.27327612e-05, 1.50771865e-19,
          -1.81294272e-05, 1.50771865e-19, -1.51275799e-05,
          1.50771865e-19, -2.06331351e-05, 1.50771865e-19,
          -2.05528686e-05, 1.50771865e-19, -7.99687223e-06,
          1.50771865e-19, 8.40851499e-06, 1.50771865e-19, 1.90386290e-05,
          1.50771865e-19, 7.38704875e-06, 1.50771865e-19, 2.19052527e-05,
          1.50771865e-19, 2.96536637e-05, 1.50771865e-19, 2.21898354e-05,
          1.50771865e-19, -4.28502335e-06, 1.50771865e-19,
          -1.11771833e-05, 1.50771865e-19, -1.10488395e-06,
          1.50771865e-19, -3.01514729e-06, 1.50771865e-19,
          -4.26389533e-06, 1.50771865e-19, 6.12443546e-06,
          1.50771865e-19, 1.46922730e-05, 1.50771865e-19, 5.83673182e-06,
          1.50771865e-19, 5.26390340e-06, 1.50771865e-19,
          -5.22854680e-06, 1.50771865e-19, -8.86692760e-06,
          1.50771865e-19, 3.11141480e-06, 1.50771865e-19, 3.94291192e-06,
          1.50771865e-19, -4.30794489e-06, 1.50771865e-19,
          -2.74832360e-06, 1.50771865e-19, -6.58194608e-07,
          1.50771865e-19, 4.52773702e-06, 1.50771865e-19,
          -1.82469216e-06, 1.50771865e-19, 8.35497076e-07,
          1.50771865e-19, 8.34156617e-06, 1.50771865e-19, 4.43040705e-07,
          1.50771865e-19, 3.18694310e-06, 1.50771865e-19, 8.62876550e-06,
          1.50771865e-19, 6.36358436e-06, 1.50771865e-19, 1.14813693e-05,
          1.50771865e-19, 4.25633425e-06, 1.50771865e-19, 3.99660621e-06,
          1.50771865e-19, -4.58946215e-06, 1.50771865e-19,
          -8.42197551e-06, 1.50771865e-19, -1.43805937e-05,
          1.50771865e-19, 1.03167067e-05, 1.50771865e-19, 5.45143757e-06,
          1.50771865e-19, 1.38289679e-05, 1.50771865e-19, 2.50429530e-05,
          1.50771865e-19, 2.24575742e-05, 1.50771865e-19, 6.40119924e-06,
          1.50771865e-19, -1.10072062e-06, 1.50771865e-19,
          -4.14083661e-06, 1.50771865e-19, -1.64593632e-06,
          1.50771865e-19, 1.63424522e-06, 1.50771865e-19, 4.49721438e-06,
          1.50771865e-19, 1.26095556e-05, 1.50771865e-19, 5.07716459e-06,
          1.50771865e-19, -9.55967820e-08, 1.50771865e-19,
          8.53095662e-06, 1.50771865e-19, 2.38098323e-06, 1.50771865e-19,
          -1.25704291e-05, 1.50771865e-19, -8.27788699e-06,
          1.50771865e-19, 1.75602217e-05, 1.50771865e-19, 1.11107465e-05,
          1.50771865e-19, 8.88469003e-06, 1.50771865e-19, 1.46574712e-05,
          1.50771865e-19, 1.49243724e-05, 1.50771865e-19, 2.04805474e-05,
          1.50771865e-19, 2.29195084e-05, 1.50771865e-19, 1.59161300e-05,
          1.50771865e-19, 1.75753048e-05, 1.50771865e-19, 1.79642338e-05,
          1.50771865e-19, 1.54508944e-05, 1.50771865e-19,
          -2.83951113e-06, 1.50771865e-19, -2.48521883e-06,
          1.50771865e-19, 9.49965511e-08, 1.50771865e-19, 6.29856402e-07,
          1.50771865e-19, 9.85711722e-07, 1.50771865e-19, 6.59485977e-06,
          1.50771865e-19, 8.22625952e-06, 1.50771865e-19, 8.38438427e-06,
          1.50771865e-19, 1.13298820e-05, 1.50771865e-19, 1.27879739e-05,
          1.50771865e-19, -5.52226265e-06, 1.50771865e-19,
          -1.00898442e-05, 1.50771865e-19, -6.08055871e-06,
          1.50771865e-19, -4.55754798e-06, 1.50771865e-19,
          -6.73732393e-06, 1.50771865e-19, -5.92540209e-06,
          1.50771865e-19, -1.74384732e-05, 1.50771865e-19,
          -1.00457892e-05, 1.50771865e-19, 1.73787100e-06,
          1.50771865e-19, 5.22149730e-06, 1.50771865e-19, 6.47769093e-06,
          1.50771865e-19, -1.34863615e-06, 1.50771865e-19,
          1.67085204e-07, 1.50771865e-19, 8.72114106e-06, 1.50771865e-19,
          6.67889844e-06, 1.50771865e-19, -2.24431432e-07,
          1.50771865e-19, -9.67693995e-06, 1.50771865e-19,
          -1.13485939e-05, 1.50771865e-19, -7.19712762e-06,
          1.50771865e-19, -6.01593229e-06, 1.50771865e-19,
          1.54287147e-06, 1.50771865e-19, 5.25935502e-06, 1.50771865e-19,
          1.05118825e-05, 1.50771865e-19, 7.63622484e-06, 1.50771865e-19,
          9.76422416e-06, 1.50771865e-19, -3.80670315e-07,
          1.50771865e-19, -1.82796259e-06, 1.50771865e-19,
          5.11252847e-06, 1.50771865e-19, 4.03744571e-06, 1.50771865e-19,
          4.43480167e-06, 1.50771865e-19, 2.52301811e-06, 1.50771865e-19,
          -9.64192805e-06, 1.50771865e-19, -2.27371238e-05,
          1.50771865e-19, -6.96884899e-06, 1.50771865e-19,
          4.76504101e-06, 1.50771865e-19, -1.65754784e-06,
          1.50771865e-19, 9.01603926e-06, 1.50771865e-19, 1.25977003e-05,
          1.50771865e-19, 4.05933497e-06, 1.50771865e-19, 6.68905432e-06,
          1.50771865e-19, 5.71628198e-06, 1.50771865e-19, 3.08717858e-06,
          1.50771865e-19, -4.20754077e-06, 1.50771865e-19,
          -1.43965071e-05, 1.50771865e-19, -1.60433701e-05,
          1.50771865e-19, -1.87692076e-05, 1.50771865e-19,
          -1.75110508e-05, 1.50771865e-19, -3.77637139e-06,
          1.50771865e-19, -4.73408818e-06, 1.50771865e-19,
          -5.71454302e-06, 1.50771865e-19, -1.68071870e-06,
          1.50771865e-19, -2.46740706e-06, 1.50771865e-19,
          -1.08586792e-05, 1.50771865e-19, -1.07840970e-05,
          1.50771865e-19, -1.03836101e-05, 1.50771865e-19,
          1.85624231e-06, 1.50771865e-19, 6.00034491e-06, 1.50771865e-19,
          -7.79679158e-06, 1.50771865e-19, -1.68800834e-05,
          1.50771865e-19, -1.63461573e-05, 1.50771865e-19,
          -6.15059434e-06, 1.50771865e-19, -2.16488843e-07,
          1.50771865e-19, -4.41124985e-06, 1.50771865e-19,
          -7.82652364e-07, 1.50771865e-19, 1.57328959e-05,
          1.50771865e-19, 8.75852311e-06, 1.50771865e-19,
          -6.34454136e-06, 1.50771865e-19, -1.27735630e-05,
          1.50771865e-19, -1.40239345e-05, 1.50771865e-19,
          -1.14285494e-05, 1.50771865e-19, -1.45280283e-05,
          1.50771865e-19, -1.41988066e-05, 1.50771865e-19,
          -1.11035533e-05, 1.50771865e-19, -1.41687569e-05,
          1.50771865e-19, -1.01813475e-05, 1.50771865e-19,
          -2.09689415e-06, 1.50771865e-19, 5.02617513e-06,
          1.50771865e-19, -3.44613159e-06, 1.50771865e-19,
          -1.16892907e-05, 1.50771865e-19, 1.66162727e-06,
          1.50771865e-19, 7.82580810e-06, 1.50771865e-19, 1.19728502e-05,
          1.50771865e-19, -3.14474346e-06, 1.50771865e-19,
          -5.87161549e-06, 1.50771865e-19, -2.92505388e-06,
          1.50771865e-19, -1.37319503e-05, 1.50771865e-19,
          -1.40964612e-05, 1.50771865e-19, -8.23530627e-06,
          1.50771865e-19, -4.98319741e-06, 1.50771865e-19,
          -1.06964180e-05, 1.50771865e-19, -2.89564264e-06,
          1.50771865e-19, -5.86778378e-06, 1.50771865e-19,
          -1.92214757e-05, 1.50771865e-19, -1.10713227e-05,
          1.50771865e-19, -1.13087044e-05, 1.50771865e-19,
          -7.62549234e-06, 1.50771865e-19, -1.13791502e-05,
          1.50771865e-19, -1.81654850e-05, 1.50771865e-19,
          -3.02698991e-05, 1.50771865e-19, -2.17030793e-05,
          1.50771865e-19, -6.17855494e-06, 1.50771865e-19,
          6.90496154e-06, 1.50771865e-19, 6.52333665e-06, 1.50771865e-19,
          1.02139666e-05, 1.50771865e-19, 1.92823991e-05, 1.50771865e-19,
          1.46919811e-05, 1.50771865e-19, 1.09894199e-05, 1.50771865e-19,
          -6.19130219e-07, 1.50771865e-19, -2.42165288e-06,
          1.50771865e-19, -4.38821735e-06, 1.50771865e-19,
          1.42596373e-05, 1.50771865e-19, -1.44363285e-05,
          1.50771865e-19, -1.70171370e-05, 1.50771865e-19,
          6.81943629e-06, 1.50771865e-19, 1.32274490e-05, 1.50771865e-19,
          6.79331833e-06, 1.50771865e-19, -1.89198556e-06,
          1.50771865e-19, -3.61018715e-06, 1.50771865e-19,
          -5.79785365e-06, 1.50771865e-19, -2.22505423e-05,
          1.50771865e-19, -2.33973460e-05, 1.50771865e-19,
          -1.54349527e-05, 1.50771865e-19, -1.59787414e-05,
          1.50771865e-19, -1.21505727e-05, 1.50771865e-19,
          -4.98293275e-06, 1.50771865e-19, 9.94869333e-06,
          1.50771865e-19, 1.07274864e-05, 1.50771865e-19, 6.92214826e-06,
          1.50771865e-19, 1.31799279e-05, 1.50771865e-19, 2.23347797e-05,
          1.50771865e-19, 1.67566468e-05, 1.50771865e-19,
          -8.43878661e-06, 1.50771865e-19, -2.43855302e-05,
          1.50771865e-19, -8.93949709e-06, 1.50771865e-19,
          -1.87638361e-05, 1.50771865e-19, -9.43780651e-06,
          1.50771865e-19, 8.77620641e-06, 1.50771865e-19, 1.22885303e-05,
          1.50771865e-19, 7.47358035e-06, 1.50771865e-19, 4.11559404e-06,
          1.50771865e-19, -4.40124541e-06, 1.50771865e-19,
          -2.95005020e-06, 1.50771865e-19, -3.58537818e-06,
          1.50771865e-19, 5.65917753e-06, 1.50771865e-19,
          -5.36475727e-06, 1.50771865e-19, -2.66530105e-06,
          1.50771865e-19, 4.62270327e-06, 1.50771865e-19, 5.40597830e-06,
          1.50771865e-19, 8.41782457e-06, 1.50771865e-19, 4.65569292e-06,
          1.50771865e-19, 9.99960594e-06, 1.50771865e-19, 2.83813620e-06,
          1.50771865e-19, 5.00130568e-07, 1.50771865e-19, 5.02609510e-09,
          1.50771865e-19, 2.06014238e-06, 1.50771865e-19, 4.86877025e-06,
          1.50771865e-19, 5.79471089e-06, 1.50771865e-19,
          -6.32309195e-07, 1.50771865e-19, 1.95929005e-07,
          1.50771865e-19, -6.16841589e-06, 1.50771865e-19,
          -1.11812524e-05, 1.50771865e-19, 1.06876041e-05,
          1.50771865e-19, 3.61044226e-06, 1.50771865e-19, 9.08896891e-06,
          1.50771865e-19, 1.38221185e-05, 1.50771865e-19, 1.33370922e-05,
          1.50771865e-19, 6.30751447e-06, 1.50771865e-19, 1.09871685e-07,
          1.50771865e-19, 3.40198176e-06, 1.50771865e-19, 3.24217467e-06,
          1.50771865e-19, 4.38363395e-06, 1.50771865e-19, 1.07069636e-05,
          1.50771865e-19, 9.64110131e-06, 1.50771865e-19, 7.50065192e-06,
          1.50771865e-19, 3.08957851e-06, 1.50771865e-19, 4.17200908e-06,
          1.50771865e-19, 1.49732443e-06, 1.50771865e-19, 5.81751749e-07,
          1.50771865e-19, -6.67117183e-06, 1.50771865e-19,
          9.23897630e-07, 1.50771865e-19, 8.30157933e-06, 1.50771865e-19,
          9.89760247e-06, 1.50771865e-19, 1.86335710e-05, 1.50771865e-19,
          2.51227193e-05, 1.50771865e-19, 1.33446656e-05, 1.50771865e-19,
          6.93468746e-06, 1.50771865e-19, 1.29310856e-05, 1.50771865e-19,
          1.61685894e-05, 1.50771865e-19, 1.15325411e-05, 1.50771865e-19,
          9.11540428e-06, 1.50771865e-19, -2.71122826e-06,
          1.50771865e-19, -4.90957427e-06, 1.50771865e-19,
          1.75917645e-08, 1.50771865e-19, -3.25851556e-06,
          1.50771865e-19, -6.80252742e-06, 1.50771865e-19,
          1.81826795e-06, 1.50771865e-19, 1.15510902e-05, 1.50771865e-19,
          4.17321371e-06, 1.50771865e-19, 1.09045632e-05, 1.50771865e-19,
          1.16900619e-05, 1.50771865e-19, -8.20983041e-06,
          1.50771865e-19, -1.49054731e-05, 1.50771865e-19,
          -1.74815432e-05, 1.50771865e-19, -9.72168709e-06,
          1.50771865e-19, -8.91525815e-06, 1.50771865e-19,
          -7.23559333e-06, 1.50771865e-19, -1.33835310e-05,
          1.50771865e-19, -9.19495869e-06, 1.50771865e-19,
          2.63945424e-07, 1.50771865e-19, 9.04966691e-06, 1.50771865e-19,
          1.26195619e-05, 1.50771865e-19, 6.28481894e-06, 1.50771865e-19,
          9.65644176e-07, 1.50771865e-19, 7.60983312e-06, 1.50771865e-19,
          6.16765738e-06, 1.50771865e-19, 6.76130185e-06, 1.50771865e-19,
          -5.09408574e-06, 1.50771865e-19, -1.17357649e-05,
          1.50771865e-19, -1.71211068e-05, 1.50771865e-19,
          -9.92526839e-06, 1.50771865e-19, 1.04459032e-05,
          1.50771865e-19, 8.35045648e-06, 1.50771865e-19, 1.43825828e-05,
          1.50771865e-19, 1.15792109e-05, 1.50771865e-19, 8.91371474e-06,
          1.50771865e-19, -2.07429184e-06, 1.50771865e-19,
          -2.01077432e-06, 1.50771865e-19, -8.48031232e-06,
          1.50771865e-19, -1.51676477e-06, 1.50771865e-19,
          9.33902754e-07, 1.50771865e-19, -5.08162702e-06,
          1.50771865e-19, -1.81985943e-05, 1.50771865e-19,
          -1.99125425e-05, 1.50771865e-19, -1.69630653e-06,
          1.50771865e-19, -5.16191812e-06, 1.50771865e-19,
          -7.50395202e-06, 1.50771865e-19, 5.01656086e-06,
          1.50771865e-19, 1.60208640e-06, 1.50771865e-19, 1.29841328e-05,
          1.50771865e-19, 6.87121337e-06, 1.50771865e-19, 2.55716782e-06,
          1.50771865e-19, -1.83226419e-07, 1.50771865e-19,
          2.09038126e-06, 1.50771865e-19, -1.02397689e-05,
          1.50771865e-19, -1.45890745e-05, 1.50771865e-19,
          -1.42467024e-05, 1.50771865e-19, -6.16813713e-06,
          1.50771865e-19, -2.84937369e-06, 1.50771865e-19,
          -7.67991969e-06, 1.50771865e-19, -2.49626987e-06,
          1.50771865e-19, -3.40063252e-06, 1.50771865e-19,
          -3.60835452e-06, 1.50771865e-19, -3.88951321e-06,
          1.50771865e-19, -4.65988160e-06, 1.50771865e-19,
          -8.07996184e-06, 1.50771865e-19, -2.03443119e-06,
          1.50771865e-19, -1.37215366e-05, 1.50771865e-19,
          -1.70977401e-05, 1.50771865e-19, -1.20391769e-05,
          1.50771865e-19, -7.04405284e-06, 1.50771865e-19,
          -8.23119763e-07, 1.50771865e-19, 7.21109109e-06,
          1.50771865e-19, 2.11068141e-06, 1.50771865e-19,
          -2.13519843e-06, 1.50771865e-19, 1.03446810e-05,
          1.50771865e-19, 6.08308983e-06, 1.50771865e-19,
          -8.08617551e-06, 1.50771865e-19, -7.43052260e-06,
          1.50771865e-19, -1.43932730e-05, 1.50771865e-19,
          -1.26483928e-05, 1.50771865e-19, -1.98413582e-05,
          1.50771865e-19, -1.50946044e-05, 1.50771865e-19,
          -1.58076364e-05, 1.50771865e-19, -2.01645707e-05,
          1.50771865e-19, -1.57720788e-05, 1.50771865e-19,
          -9.53466770e-06, 1.50771865e-19, 2.28895101e-06,
          1.50771865e-19, -6.44275758e-07, 1.50771865e-19,
          -1.27814228e-05, 1.50771865e-19, -1.70489091e-06,
          1.50771865e-19, 8.61407807e-06, 1.50771865e-19, 5.67660254e-06,
          1.50771865e-19, -7.57837552e-06, 1.50771865e-19,
          -1.47273568e-05, 1.50771865e-19, -1.83948760e-05,
          1.50771865e-19, -1.06719845e-05, 1.50771865e-19,
